{"learner":{"attributes":{"best_iteration":"8","best_score":"0.6867031245319931"},"feature_names":[],"feature_types":[],"gradient_booster":{"model":{"cats":{"enc":[],"feature_segments":[],"sorted_idx":[]},"gbtree_model_param":{"num_parallel_tree":"1","num_trees":"9"},"iteration_indptr":[0,1,2,3,4,5,6,7,8,9],"tree_info":[0,0,0,0,0,0,0,0,0],"trees":[{"base_weights":[1.5479249E-2,4.358648E-1,-8.00727E-2,-3.734033E-2,8.7645364E-1,-3.4550065E-1,1.6790211E-1,2.3350058E-1,-9.5888805E-1,7.226684E-2,5.901641E-1,-1.4208187E-1,-5.7252306E-1,2.992097E-1,-6.477399E-1,5.624093E-1,-7.0874333E-1,-5.8360346E-2,-1.8341819E-2,9.242352E-1,4.6326254E-2,2.4447072E-1,-4.7124556E-1,-1.7772357E-1,-8.66999E-1,6.2072165E-2,2.3811813E-1,2.6559165E-1,-1.1252694E0,-1.9345854E-1,6.595074E-2,-6.1899073E-2,1.2659754E-2,3.598685E-1,6.686953E-2,-4.8275003E-1,5.7123255E-2,-8.4618664E-1,5.606671E-1,-1.0036166E0,-2.8909221E-2,-5.7995774E-2,1.3120443E-1,-1.0111479E0,3.970457E-2,-6.207693E-1,3.232371E-1,-1.4822433E-2,4.1685972E-2,-6.922313E-2,-1.4822433E-2,4.1685972E-2,-3.4670234E-2,3.52033E-2,-7.3268237E-3,1.2659754E-2,-4.0895548E-2,-1.4822433E-2,-5.8360346E-2,3.7205994E-2,-2.5517574E-2,-6.8048835E-2,-4.6322434E-3,1.7604537E-2,-3.1104077E-2,-2.1757757E-2,3.8358204E-2,-6.692403E-2,-3.5606857E-2,3.4891505E-2,-3.1803753E-2,1.8528117E-3,-4.7944404E-2,8.9364415E-3,3.709562E-2],"categories":[],"categories_nodes":[],"categories_segments":[],"categories_sizes":[],"default_left":[0,0,0,0,0,0,0,0,0,0,0,0,0,0,0,0,0,0,0,0,0,0,0,0,0,0,0,0,0,0,0,0,0,0,0,0,0,0,0,0,0,0,0,0,0,0,0,0,0,0,0,0,0,0,0,0,0,0,0,0,0,0,0,0,0,0,0,0,0,0,0,0,0,0,0],"id":0,"left_children":[1,3,5,7,9,11,13,15,17,-1,19,21,23,25,27,29,31,-1,-1,33,35,37,39,41,43,-1,45,47,49,51,-1,-1,-1,53,-1,55,-1,57,59,61,63,-1,65,67,69,71,73,-1,-1,-1,-1,-1,-1,-1,-1,-1,-1,-1,-1,-1,-1,-1,-1,-1,-1,-1,-1,-1,-1,-1,-1,-1,-1,-1,-1],"loss_changes":[7.099161E0,6.8556314E0,9.545192E0,4.401548E0,1.9137135E0,3.148838E0,8.24695E0,4.656848E0,6.488252E-2,0E0,2.317349E0,4.978443E0,3.650546E0,3.4718723E0,4.984114E0,6.398729E0,2.3486505E0,0E0,0E0,1.3828249E0,4.0289345E0,6.7635694E0,4.9125795E0,4.776105E0,2.456338E0,0E0,4.784676E0,1.683191E0,1.1460209E0,3.7856102E0,0E0,0E0,0E0,9.306078E-1,0E0,1.3780124E0,0E0,4.4765306E-1,3.2757783E0,2.9644547E0,3.0420065E0,0E0,4.8329124E0,6.1170006E-1,1.9996318E0,1.3692138E0,3.3587441E0,0E0,0E0,0E0,0E0,0E0,0E0,0E0,0E0,0E0,0E0,0E0,0E0,0E0,0E0,0E0,0E0,0E0,0E0,0E0,0E0,0E0,0E0,0E0,0E0,0E0,0E0,0E0,0E0],"parents":[2147483647,0,0,1,1,2,2,3,3,4,4,5,5,6,6,7,7,8,8,10,10,11,11,12,12,13,13,14,14,15,15,16,16,19,19,20,20,21,21,22,22,23,23,24,24,26,26,27,27,28,28,29,29,33,33,35,35,37,37,38,38,39,39,40,40,42,42,43,43,44,44,45,45,46,46],"right_children":[2,4,6,8,10,12,14,16,18,-1,20,22,24,26,28,30,32,-1,-1,34,36,38,40,42,44,-1,46,48,50,52,-1,-1,-1,54,-1,56,-1,58,60,62,64,-1,66,68,70,72,74,-1,-1,-1,-1,-1,-1,-1,-1,-1,-1,-1,-1,-1,-1,-1,-1,-1,-1,-1,-1,-1,-1,-1,-1,-1,-1,-1,-1],"split_conditions":[-2.6020547E-2,-3.9443087E-2,5.345902E-1,-6.641918E-2,-4.9284883E-2,3.1768987E-1,6.7738754E1,3.505152E-1,3.9878544E1,7.226684E-2,5.030115E-2,-2.82752E-2,2.5151618E-2,5.623015E-1,2.2745503E-2,-1.19403005E-1,3.0415496E-2,-5.8360346E-2,-1.8341819E-2,-3.3594605E-2,6.82835E1,7.18957E-2,2.9207237E-2,3.614033E-1,4.5552336E-2,6.2072165E-2,-1.078349E-2,2.0704422E-2,3.8984627E-2,1.4634157E1,6.595074E-2,-6.1899073E-2,1.2659754E-2,5.404476E1,6.686953E-2,5.7791008E1,5.7123255E-2,-1.2234603E-2,3.606045E-2,5.404476E1,7.250244E-2,-5.7995774E-2,1.2720914E-3,-4.4840056E-2,5.2273247E-2,2.3000825E-2,3.658016E-2,-1.4822433E-2,4.1685972E-2,-6.922313E-2,-1.4822433E-2,4.1685972E-2,-3.4670234E-2,3.52033E-2,-7.3268237E-3,1.2659754E-2,-4.0895548E-2,-1.4822433E-2,-5.8360346E-2,3.7205994E-2,-2.5517574E-2,-6.8048835E-2,-4.6322434E-3,1.7604537E-2,-3.1104077E-2,-2.1757757E-2,3.8358204E-2,-6.692403E-2,-3.5606857E-2,3.4891505E-2,-3.1803753E-2,1.8528117E-3,-4.7944404E-2,8.9364415E-3,3.709562E-2],"split_indices":[6,0,5,0,6,5,1,5,1,0,0,0,4,5,4,0,4,0,0,6,1,5,0,5,4,0,6,4,4,1,0,0,0,1,0,1,0,6,4,1,0,0,0,0,4,4,4,0,0,0,0,0,0,0,0,0,0,0,0,0,0,0,0,0,0,0,0,0,0,0,0,0,0,0,0],"split_type":[0,0,0,0,0,0,0,0,0,0,0,0,0,0,0,0,0,0,0,0,0,0,0,0,0,0,0,0,0,0,0,0,0,0,0,0,0,0,0,0,0,0,0,0,0,0,0,0,0,0,0,0,0,0,0,0,0,0,0,0,0,0,0,0,0,0,0,0,0,0,0,0,0,0,0],"sum_hessian":[1.7486499E2,3.1725504E1,1.4313948E2,1.5737848E1,1.5987656E1,6.894676E1,7.419271E1,1.2740163E1,2.9976854E0,3.996914E0,1.1990742E1,3.722126E1,3.1725504E1,6.445023E1,9.742477E0,9.742477E0,2.9976854E0,1.4988427E0,1.4988427E0,6.9945993E0,4.9961424E0,1.723669E1,1.998457E1,1.4239006E1,1.7486498E1,2.7478783E0,6.170236E1,3.4972997E0,6.245178E0,5.2459497E0,4.496528E0,1.7486498E0,1.2490356E0,3.7471068E0,3.2474926E0,3.7471068E0,1.2490356E0,3.4972997E0,1.3739391E1,8.493443E0,1.1491127E1,2.7478783E0,1.1491127E1,1.4988427E1,2.4980712E0,4.9961424E0,5.6706215E1,1.998457E0,1.4988427E0,4.2467213E0,1.998457E0,1.4988427E0,3.7471068E0,1.998457E0,1.7486498E0,1.2490356E0,2.4980712E0,1.998457E0,1.4988427E0,1.1990742E1,1.7486498E0,5.7455635E0,2.7478783E0,7.2444067E0,4.2467213E0,6.245178E0,5.2459497E0,5.4957566E0,9.49267E0,1.2490356E0,1.2490356E0,1.998457E0,2.9976854E0,4.3216633E1,1.3489584E1],"tree_param":{"num_deleted":"0","num_feature":"7","num_nodes":"75","size_leaf_vector":"1"}},{"base_weights":[5.35142E-3,-1.1248673E-1,3.5665533E-1,3.4467942E-1,-2.8104302E-1,7.552435E-1,-8.098905E-2,5.5989254E-1,-3.3839923E-1,-3.913851E-1,6.153466E-2,-5.954948E-1,9.650969E-1,4.506362E-1,-4.0179273E-1,7.6827514E-1,-3.7192E-1,3.742226E-1,-7.870202E-1,-5.036824E-1,1.2176523E-1,7.259258E-1,-1.13766894E-1,-3.735124E-2,-8.09834E-3,1.1151298E0,3.1686065E-1,-2.9837986E-2,5.897326E-2,2.8930677E-2,-5.8540773E-1,3.390549E-2,8.7669504E-1,2.1350464E-2,-7.547723E-1,-1.5813202E-2,5.6415893E-2,-6.35717E-3,-5.7459988E-2,2.3230063E-2,-7.059985E-1,9.240359E-1,-2.3380107E-1,5.6103546E-2,2.720878E-3,-5.991678E-1,2.0284423E-1,1.3992104E-3,1.2237736E0,4.6564482E-2,-2.56515E-1,3.8535857E-1,-3.0436644E-2,-2.755627E-1,-5.8784742E-2,2.8124793E-2,-3.1375356E-2,2.2417204E-2,5.7711214E-2,-5.723364E-2,-6.2746494E-3,-4.310511E-2,1.9449053E-2,-2.6349157E-2,-5.2921075E-2,6.525196E-2,1.0346591E-2,2.043809E-2,-3.9193925E-2,-3.9394446E-2,1.2695587E-2,2.1646861E-2,-2.724557E-2,2.7943978E-2,6.998003E-2,-5.42768E-2,3.4322556E-2,4.1263204E-2,-7.738081E-3,-3.8155433E-2,1.08888E-2],"categories":[],"categories_nodes":[],"categories_segments":[],"categories_sizes":[],"default_left":[0,0,0,0,0,0,0,0,0,0,0,0,0,0,0,0,0,0,0,0,0,0,0,0,0,0,0,0,0,0,0,0,0,0,0,0,0,0,0,0,0,0,0,0,0,0,0,0,0,0,0,0,0,0,0,0,0,0,0,0,0,0,0,0,0,0,0,0,0,0,0,0,0,0,0,0,0,0,0,0,0],"id":1,"left_children":[1,3,5,7,9,11,13,15,17,19,21,23,25,27,29,31,33,35,37,39,41,43,45,-1,-1,47,49,51,-1,-1,53,55,57,-1,59,-1,-1,-1,-1,61,63,65,67,-1,-1,69,71,-1,73,-1,75,77,-1,79,-1,-1,-1,-1,-1,-1,-1,-1,-1,-1,-1,-1,-1,-1,-1,-1,-1,-1,-1,-1,-1,-1,-1,-1,-1,-1,-1],"loss_changes":[7.2869E0,1.0256674E1,7.773136E0,5.476679E0,3.6862273E0,7.1606092E0,3.9289584E0,5.669327E0,3.2485027E0,4.2918262E0,2.932167E0,1.2487614E-1,1.639595E0,3.0963917E0,2.9010901E0,1.8003235E0,2.0782945E0,2.568431E0,1.2860694E0,6.458111E0,4.2058454E0,1.33374E0,3.2294993E0,0E0,0E0,1.8842678E0,2.0878456E0,1.7353142E0,0E0,0E0,1.9596405E0,1.7504127E0,1.8586369E0,0E0,8.972604E-1,0E0,0E0,0E0,0E0,6.077478E0,2.1988602E0,9.58647E-1,4.027997E0,0E0,0E0,1.5260711E0,2.47032E0,0E0,9.414635E-1,0E0,3.4803696E0,1.1371348E0,0E0,2.4497428E0,0E0,0E0,0E0,0E0,0E0,0E0,0E0,0E0,0E0,0E0,0E0,0E0,0E0,0E0,0E0,0E0,0E0,0E0,0E0,0E0,0E0,0E0,0E0,0E0,0E0,0E0,0E0],"parents":[2147483647,0,0,1,1,2,2,3,3,4,4,5,5,6,6,7,7,8,8,9,9,10,10,11,11,12,12,13,13,14,14,15,15,16,16,17,17,18,18,19,19,20,20,21,21,22,22,25,25,26,26,27,27,30,30,31,31,32,32,34,34,39,39,40,40,41,41,42,42,45,45,46,46,48,48,50,50,51,51,53,53],"right_children":[2,4,6,8,10,12,14,16,18,20,22,24,26,28,30,32,34,36,38,40,42,44,46,-1,-1,48,50,52,-1,-1,54,56,58,-1,60,-1,-1,-1,-1,62,64,66,68,-1,-1,70,72,-1,74,-1,76,78,-1,80,-1,-1,-1,-1,-1,-1,-1,-1,-1,-1,-1,-1,-1,-1,-1,-1,-1,-1,-1,-1,-1,-1,-1,-1,-1,-1,-1],"split_conditions":[1.577599E-2,-2.4659995E-2,5.404476E1,1.3460299E0,3.172618E-2,4.874374E-1,2.7968112E-2,3.614033E-1,-5.882163E-2,1.1900177E0,3.3664975E-2,2.6348112E-2,1.3794048E0,8.8600975E-1,2.3267824E-2,5.974188E-1,7.6672304E-1,1.86816E0,2.9734322E1,6.3210005E-1,1.3367138E0,3.3333287E-1,-5.0125504E-3,-3.735124E-2,-8.09834E-3,1.8989267E-2,3.429926E-2,6.8159584E1,5.897326E-2,2.8930677E-2,6.953895E1,2.1259871E-1,-4.2894498E-2,2.1350464E-2,4.6384004E-1,-1.5813202E-2,5.6415893E-2,-6.35717E-3,-5.7459988E-2,4.809217E-1,2.5323808E-2,2.3998912E-2,3.5980804E1,5.6103546E-2,2.720878E-3,6.9979703E-1,5.2273247E-2,1.3992104E-3,6.887682E-1,4.6564482E-2,5.2863464E-2,1.1004375E0,-3.0436644E-2,6.046129E1,-5.8784742E-2,2.8124793E-2,-3.1375356E-2,2.2417204E-2,5.7711214E-2,-5.723364E-2,-6.2746494E-3,-4.310511E-2,1.9449053E-2,-2.6349157E-2,-5.2921075E-2,6.525196E-2,1.0346591E-2,2.043809E-2,-3.9193925E-2,-3.9394446E-2,1.2695587E-2,2.1646861E-2,-2.724557E-2,2.7943978E-2,6.998003E-2,-5.42768E-2,3.4322556E-2,4.1263204E-2,-7.738081E-3,-3.8155433E-2,1.08888E-2],"split_indices":[6,6,1,3,4,5,4,5,6,3,4,4,3,5,6,3,3,3,1,3,3,5,6,0,0,4,6,1,0,0,1,5,6,0,5,0,0,0,0,3,4,4,1,0,0,5,4,0,3,0,6,3,0,1,0,0,0,0,0,0,0,0,0,0,0,0,0,0,0,0,0,0,0,0,0,0,0,0,0,0,0],"split_type":[0,0,0,0,0,0,0,0,0,0,0,0,0,0,0,0,0,0,0,0,0,0,0,0,0,0,0,0,0,0,0,0,0,0,0,0,0,0,0,0,0,0,0,0,0,0,0,0,0,0,0,0,0,0,0,0,0,0,0,0,0,0,0,0,0,0,0,0,0,0,0,0,0,0,0,0,0,0,0,0,0],"sum_hessian":[1.7405571E2,1.308458E2,4.3209908E1,3.49656E1,9.5880196E1,2.2234215E1,2.0975693E1,2.6725662E1,8.239939E0,7.241373E1,2.346647E1,2.7427313E0,1.9491484E1,7.741698E0,1.3233995E1,2.1984695E1,4.740966E0,3.2473898E0,4.9925494E0,5.9427193E1,1.2986534E1,4.24332E0,1.9223152E1,1.4965255E0,1.2462058E0,1.524322E1,4.248263E0,5.2438173E0,2.4978805E0,1.748217E0,1.1485779E1,2.9970748E0,1.8987621E1,1.498528E0,3.242438E0,1.9982754E0,1.2491144E0,2.2479408E0,2.7446086E0,1.6732977E1,4.2694218E1,3.497128E0,9.489406E0,2.2468545E0,1.9964654E0,7.236433E0,1.1986718E1,1.4991848E0,1.3744035E1,1.7493926E0,2.4988704E0,3.2483482E0,1.9954689E0,8.494039E0,2.9917402E0,1.7489198E0,1.2481551E0,8.493642E0,1.0493979E1,1.4963068E0,1.7461313E0,4.4951057E0,1.223787E1,2.9967407E1,1.2726809E1,1.7483442E0,1.748784E0,4.495256E0,4.9941497E0,5.9881363E0,1.2482967E0,9.48813E0,2.4985883E0,3.7483056E0,9.995729E0,1.2493206E0,1.2495497E0,1.4993021E0,1.7490462E0,3.9970737E0,4.496965E0],"tree_param":{"num_deleted":"0","num_feature":"7","num_nodes":"81","size_leaf_vector":"1"}},{"base_weights":[1.8771865E-3,-1.3162495E-1,2.1159555E-1,2.729459E-1,-3.211317E-1,3.537036E-1,-4.2499873E-1,-1.0308734E-1,6.38556E-1,5.6235213E-2,-3.8352853E-1,1.8496801E-1,9.046839E-1,2.8013545E-1,-6.7137605E-1,1.2362399E-1,-5.3163886E-2,7.045485E-2,4.159725E-1,-5.1546775E-2,-5.547753E-1,7.443243E-2,5.1318944E-2,7.360252E-2,7.888887E-2,-1.7978555E-2,4.036762E-2,-9.049574E-1,1.2602999E-2,-1.9367388E-1,8.1285185E-1,9.1987795E-1,2.7240044E-2,7.102255E-1,-2.4201038E-1,-6.842033E-1,1.2386887E-1,-2.3739056E-1,3.7111345E-1,-3.8783383E-2,7.535973E-1,-1.0684026E0,-1.3828258E-2,2.2521075E-2,-3.668393E-2,8.785821E-3,6.347836E-2,5.9291303E-2,9.681304E-4,-1.1160964E-2,4.087184E-2,-7.5728646E-3,5.920392E-2,-1.9233707E-2,3.6499888E-2,-4.5406196E-2,-2.2455938E-2,1.76955E-2,-3.2305453E-2,2.7750386E-2,-2.6927907E-2,-3.946284E-2,2.512689E-2,6.324377E-2,-1.0311035E-2,-1.2831933E-2,-7.048499E-2],"categories":[],"categories_nodes":[],"categories_segments":[],"categories_sizes":[],"default_left":[0,0,0,0,0,0,0,0,0,0,0,0,0,0,0,0,0,0,0,0,0,0,0,0,0,0,0,0,0,0,0,0,0,0,0,0,0,0,0,0,0,0,0,0,0,0,0,0,0,0,0,0,0,0,0,0,0,0,0,0,0,0,0,0,0,0,0],"id":2,"left_children":[1,3,5,7,9,11,13,15,17,-1,19,21,23,25,27,29,-1,-1,31,33,35,37,-1,-1,39,-1,-1,41,-1,43,45,47,49,51,53,55,57,59,61,-1,63,65,-1,-1,-1,-1,-1,-1,-1,-1,-1,-1,-1,-1,-1,-1,-1,-1,-1,-1,-1,-1,-1,-1,-1,-1,-1],"loss_changes":[4.8353033E0,8.178932E0,6.2271004E0,4.768469E0,6.9566255E0,4.9887586E0,2.3966548E0,3.9895933E0,2.4122176E0,0E0,3.9556837E0,3.9892972E0,5.8554573E0,1.6384599E0,2.323697E0,3.4889412E0,0E0,0E0,2.9098475E0,3.7920847E0,4.136752E0,3.7623646E0,0E0,0E0,4.1865335E0,0E0,0E0,5.23294E-1,0E0,4.239603E0,1.2303412E0,1.5323663E0,2.0603611E0,2.3208737E0,3.1521986E0,1.6396446E0,1.687402E0,5.0656056E0,3.559897E0,0E0,2.2228801E0,1.2941985E0,0E0,0E0,0E0,0E0,0E0,0E0,0E0,0E0,0E0,0E0,0E0,0E0,0E0,0E0,0E0,0E0,0E0,0E0,0E0,0E0,0E0,0E0,0E0,0E0,0E0],"parents":[2147483647,0,0,1,1,2,2,3,3,4,4,5,5,6,6,7,7,8,8,10,10,11,11,12,12,13,13,14,14,15,15,18,18,19,19,20,20,21,21,24,24,27,27,29,29,30,30,31,31,32,32,33,33,34,34,35,35,36,36,37,37,38,38,40,40,41,41],"right_children":[2,4,6,8,10,12,14,16,18,-1,20,22,24,26,28,30,-1,-1,32,34,36,38,-1,-1,40,-1,-1,42,-1,44,46,48,50,52,54,56,58,60,62,-1,64,66,-1,-1,-1,-1,-1,-1,-1,-1,-1,-1,-1,-1,-1,-1,-1,-1,-1,-1,-1,-1,-1,-1,-1,-1,-1],"split_conditions":[6.2305075E-1,-2.3509206E-2,6.684962E1,-3.9443087E-2,1.6679179E-2,3.8200505E-2,2.2745503E-2,3.6799926E-1,-5.882163E-2,5.6235213E-2,4.1992332E1,6.285221E1,2.386537E-2,1.9615429E-2,6.567609E-2,-2.9196292E-2,-5.3163886E-2,7.045485E-2,5.234639E1,2.0400813E-2,3.720201E-2,1.577599E-2,5.1318944E-2,7.360252E-2,4.4291053E-2,-1.7978555E-2,4.036762E-2,9.0476155E-1,1.2602999E-2,3.3844578E1,3.4689507E1,-2.835793E-2,-2.835793E-2,2.6274446E-1,3.959798E1,-4.6828864E-3,5.3175086E-1,7.0190763E-1,6.917294E-1,-3.8783383E-2,4.2715453E-2,1.0397246E-1,-1.3828258E-2,2.2521075E-2,-3.668393E-2,8.785821E-3,6.347836E-2,5.9291303E-2,9.681304E-4,-1.1160964E-2,4.087184E-2,-7.5728646E-3,5.920392E-2,-1.9233707E-2,3.6499888E-2,-4.5406196E-2,-2.2455938E-2,1.76955E-2,-3.2305453E-2,2.7750386E-2,-2.6927907E-2,-3.946284E-2,2.512689E-2,6.324377E-2,-1.0311035E-2,-1.2831933E-2,-7.048499E-2],"split_indices":[5,6,1,0,4,4,4,5,6,0,1,1,6,4,6,6,0,0,1,4,4,6,0,0,6,0,0,5,0,1,1,6,6,5,1,6,5,5,5,0,4,0,0,0,0,0,0,0,0,0,0,0,0,0,0,0,0,0,0,0,0,0,0,0,0,0,0],"split_type":[0,0,0,0,0,0,0,0,0,0,0,0,0,0,0,0,0,0,0,0,0,0,0,0,0,0,0,0,0,0,0,0,0,0,0,0,0,0,0,0,0,0,0,0,0,0,0,0,0,0,0,0,0,0,0,0,0,0,0,0,0,0,0,0,0,0,0],"sum_hessian":[1.707079E2,1.04535355E2,6.6172554E1,3.320562E1,7.132973E1,5.445978E1,1.1712771E1,1.6723446E1,1.6482174E1,2.2466304E0,6.90831E1,4.271438E1,1.1745406E1,2.9973397E0,8.715431E0,1.4233915E1,2.489531E0,2.4993308E0,1.3982843E1,2.3951447E1,4.5131653E1,3.8716656E1,3.9977195E0,6.4982E0,5.247206E0,1.4978652E0,1.4994745E0,6.971911E0,1.7435205E0,1.0239147E1,3.9947681E0,5.494322E0,8.488522E0,4.2448697E0,1.9706577E1,3.7896088E1,7.2355647E0,1.8974054E1,1.9742603E1,2.249038E0,2.9981682E0,4.977138E0,1.994773E0,4.7451825E0,5.4939647E0,2.2461047E0,1.7486633E0,3.997048E0,1.4972737E0,6.9903784E0,1.4981432E0,1.7474929E0,2.4973767E0,1.77113E1,1.9952778E0,1.79426E1,1.995349E1,5.987179E0,1.2483858E0,4.993325E0,1.3980729E1,1.4993298E0,1.8243273E1,1.7487906E0,1.2493777E0,1.9917575E0,2.9853804E0],"tree_param":{"num_deleted":"0","num_feature":"7","num_nodes":"67","size_leaf_vector":"1"}},{"base_weights":[-8.227036E-2,4.027548E-1,-1.5484555E-1,4.944648E-2,8.371932E-1,-3.2425416E-1,1.2516698E-2,-1.4482777E-1,5.527535E-2,6.498288E-2,4.048E-1,4.3434972E-1,-4.2320833E-1,9.143599E-1,-1.0414302E-1,4.8648122E-1,-8.532144E-1,5.4853566E-2,-1.8570098E-1,9.0743965E-1,-3.587835E-2,5.398976E-1,-4.7626114E-1,7.2721146E-2,1.2455788E-1,1.984167E-2,-5.794875E-1,4.732835E-2,-2.7717024E-1,-1.075551E0,-8.964251E-3,4.6012875E-2,-6.12224E-2,2.3808032E-3,1.1326505E0,-3.1158937E-2,6.4779885E-2,-8.127862E-1,-3.2916155E-1,-5.422938E-2,4.3303605E-2,-5.8726346E-1,1.8890035E-1,2.147312E-2,-7.2962886E-1,-3.206512E-2,1.0514135E-2,-6.561433E-2,-1.8027188E-2,7.07848E-2,2.5015218E-2,-5.2975792E-2,-1.3305432E-2,2.511829E-2,-2.4735896E-2,2.8586248E-2,-4.146882E-2,3.8163953E-2,-1.9378118E-3,-4.431131E-2,4.36434E-3],"categories":[],"categories_nodes":[],"categories_segments":[],"categories_sizes":[],"default_left":[0,0,0,0,0,0,0,0,0,0,0,0,0,0,0,0,0,0,0,0,0,0,0,0,0,0,0,0,0,0,0,0,0,0,0,0,0,0,0,0,0,0,0,0,0,0,0,0,0,0,0,0,0,0,0,0,0,0,0,0,0],"id":3,"left_children":[1,3,5,7,9,11,13,15,-1,-1,17,19,21,23,25,27,29,-1,31,33,-1,35,37,-1,39,41,43,-1,45,47,-1,-1,-1,-1,49,-1,-1,51,53,-1,-1,55,57,-1,59,-1,-1,-1,-1,-1,-1,-1,-1,-1,-1,-1,-1,-1,-1,-1,-1],"loss_changes":[6.1977262E0,3.4832768E0,4.3230853E0,2.9764102E0,1.5208435E0,5.8694453E0,8.25858E0,5.9954977E0,0E0,0E0,2.9600053E0,5.6829123E0,3.7064552E0,3.653318E0,4.1135406E0,2.804334E0,7.426629E-1,0E0,6.289552E0,1.2989945E0,0E0,4.3171544E0,2.9260902E0,0E0,5.193151E0,5.8760614E0,2.4995675E0,0E0,7.549632E-1,2.8763628E-1,0E0,0E0,0E0,0E0,2.7481842E-1,0E0,0E0,2.2729893E0,6.659867E0,0E0,0E0,3.9755864E0,5.873605E0,0E0,1.7318349E0,0E0,0E0,0E0,0E0,0E0,0E0,0E0,0E0,0E0,0E0,0E0,0E0,0E0,0E0,0E0,0E0],"parents":[2147483647,0,0,1,1,2,2,3,3,4,4,5,5,6,6,7,7,10,10,11,11,12,12,13,13,14,14,15,15,16,16,18,18,19,19,21,21,22,22,24,24,25,25,26,26,28,28,29,29,34,34,37,37,38,38,41,41,42,42,44,44],"right_children":[2,4,6,8,10,12,14,16,-1,-1,18,20,22,24,26,28,30,-1,32,34,-1,36,38,-1,40,42,44,-1,46,48,-1,-1,-1,-1,50,-1,-1,52,54,-1,-1,56,58,-1,60,-1,-1,-1,-1,-1,-1,-1,-1,-1,-1,-1,-1,-1,-1,-1,-1],"split_conditions":[-3.337062E-2,4.681345E1,3.0868514E-3,2.059037E0,-4.9284883E-2,1.876204E-2,5.446122E-1,1.1418301E0,5.527535E-2,6.498288E-2,1.8336806E-1,-3.9416836E-3,8.344974E-2,1.4868964E-2,6.7738754E1,3.682145E1,2.4082138E-1,5.4853566E-2,6.807578E-1,7.340322E-2,-3.587835E-2,7.4632406E-2,2.3780981E-2,7.2721146E-2,1.8686044E-1,1.2437248E-1,1.2802096E-1,4.732835E-2,8.7618524E-1,1.5645373E0,-8.964251E-3,4.6012875E-2,-6.12224E-2,2.3808032E-3,9.5862985E-2,-3.1158937E-2,6.4779885E-2,9.976066E-1,2.5651425E-2,-5.422938E-2,4.3303605E-2,7.1637607E-1,1.5844826E-1,2.147312E-2,6.567609E-2,-3.206512E-2,1.0514135E-2,-6.561433E-2,-1.8027188E-2,7.07848E-2,2.5015218E-2,-5.2975792E-2,-1.3305432E-2,2.511829E-2,-2.4735896E-2,2.8586248E-2,-4.146882E-2,3.8163953E-2,-1.9378118E-3,-4.431131E-2,4.36434E-3],"split_indices":[6,1,6,3,6,4,3,3,0,0,2,6,2,6,1,1,2,0,3,2,0,2,4,0,2,2,2,0,3,3,0,0,0,0,2,0,0,3,4,0,0,3,2,0,6,0,0,0,0,0,0,0,0,0,0,0,0,0,0,0,0],"split_type":[0,0,0,0,0,0,0,0,0,0,0,0,0,0,0,0,0,0,0,0,0,0,0,0,0,0,0,0,0,0,0,0,0,0,0,0,0,0,0,0,0,0,0,0,0,0,0,0,0,0,0,0,0,0,0,0,0,0,0,0,0],"sum_hessian":[1.7329608E2,2.196343E1,1.5133264E2,1.2726986E1,9.2364435E0,7.474068E1,7.659197E1,1.1478287E1,1.2486999E0,3.4938645E0,5.742579E0,8.233269E0,6.650741E1,7.989666E0,6.860231E1,6.234976E0,5.2433105E0,2.2485895E0,3.4939895E0,5.986755E0,2.2465134E0,2.993194E0,6.3514214E1,4.245268E0,3.7443979E0,5.5170403E1,1.3431907E1,3.741353E0,2.4936228E0,3.494497E0,1.7488135E0,1.7474943E0,1.7464952E0,1.4940623E0,4.4926925E0,1.2479193E0,1.7452748E0,1.7942068E1,4.5572144E1,1.2475015E0,2.4968963E0,1.1478029E1,4.369237E1,1.4989014E0,1.1933005E1,1.2467037E0,1.2469189E0,1.997716E0,1.496781E0,2.2477672E0,2.2449255E0,1.1716164E1,6.225905E0,7.2290297E0,3.8343113E1,1.7481731E0,9.729856E0,1.173419E1,3.1958181E1,9.942288E0,1.9907165E0],"tree_param":{"num_deleted":"0","num_feature":"7","num_nodes":"61","size_leaf_vector":"1"}},{"base_weights":[-1.8965602E-2,4.2374077E-1,-1.18942395E-1,8.2156056E-1,-1.5756382E-1,-3.7055853E-1,9.2967115E-2,6.468035E-3,1.0738384E0,2.801487E-1,-7.7012277E-1,-1.2951724E-1,-6.756102E-1,1.6265558E-1,-5.9895825E-1,3.132376E-2,-2.6338533E-2,7.6154076E-2,5.7726353E-1,-3.2726696E-1,6.988186E-1,-5.185162E-2,-3.3239114E-1,-2.0491506E-1,5.6522634E-2,-3.2919633E-1,-9.2950964E-1,3.3413333E-1,-1.23439394E-1,-6.289462E-2,-1.6029438E-1,-8.904087E-3,7.996119E-1,-5.7382174E-2,2.6870746E-2,6.256556E-2,1.0539613E-1,1.1308407E-2,-3.517402E-2,-3.5194552E-1,4.2591667E-1,-1.037516E0,4.9248144E-2,-1.1547828E0,-3.3681077E-1,1.6910425E-1,9.0457994E-1,3.1781882E-1,-5.1937896E-1,-5.3047847E-2,3.5343823E-1,5.1040273E-2,7.7595207E-4,-2.0040048E-2,3.1009063E-2,3.903923E-2,-2.2002574E-2,4.2872947E-2,-1.8527329E-2,-1.558002E-2,-6.378549E-2,2.640695E-2,-2.5570992E-2,-3.7371125E-2,-7.466974E-2,1.633481E-2,-5.9011336E-2,1.7460627E-2,-5.408131E-2,-1.4759742E-2,6.261316E-2,-6.086691E-2,3.2505993E-2,2.0798983E-2,-3.2848373E-2,4.9287472E-2,-3.234104E-2],"categories":[],"categories_nodes":[],"categories_segments":[],"categories_sizes":[],"default_left":[0,0,0,0,0,0,0,0,0,0,0,0,0,0,0,0,0,0,0,0,0,0,0,0,0,0,0,0,0,0,0,0,0,0,0,0,0,0,0,0,0,0,0,0,0,0,0,0,0,0,0,0,0,0,0,0,0,0,0,0,0,0,0,0,0,0,0,0,0,0,0,0,0,0,0,0,0],"id":4,"left_children":[1,3,5,7,9,11,13,15,17,19,21,23,25,27,29,-1,-1,-1,31,33,35,-1,37,39,-1,41,43,45,47,-1,49,-1,51,-1,-1,-1,53,-1,-1,55,57,59,61,63,65,67,69,71,73,-1,75,-1,-1,-1,-1,-1,-1,-1,-1,-1,-1,-1,-1,-1,-1,-1,-1,-1,-1,-1,-1,-1,-1,-1,-1,-1,-1],"loss_changes":[7.604771E0,7.4516716E0,7.500148E0,3.891636E0,3.8900838E0,4.634014E0,3.8009067E0,2.1441286E0,2.3492527E0,2.4477453E0,3.5373378E-1,3.7567294E0,2.1660118E0,3.5030303E0,1.8914735E0,0E0,0E0,0E0,1.5673256E0,3.6254845E0,1.66625E0,0E0,9.335058E-1,3.475778E0,0E0,3.6526046E0,1.703311E0,4.025864E0,4.912749E0,0E0,2.9167345E0,0E0,1.1525807E0,0E0,0E0,0E0,1.2221696E0,0E0,0E0,3.3004363E0,2.8028293E0,4.1930246E-1,2.877631E0,3.932085E-1,3.5906835E0,8.410525E0,4.428599E0,7.6639843E0,2.1653934E0,0E0,3.3244565E0,0E0,0E0,0E0,0E0,0E0,0E0,0E0,0E0,0E0,0E0,0E0,0E0,0E0,0E0,0E0,0E0,0E0,0E0,0E0,0E0,0E0,0E0,0E0,0E0,0E0,0E0],"parents":[2147483647,0,0,1,1,2,2,3,3,4,4,5,5,6,6,7,7,8,8,9,9,10,10,11,11,12,12,13,13,14,14,18,18,19,19,20,20,22,22,23,23,25,25,26,26,27,27,28,28,30,30,32,32,36,36,39,39,40,40,41,41,42,42,43,43,44,44,45,45,46,46,47,47,48,48,50,50],"right_children":[2,4,6,8,10,12,14,16,18,20,22,24,26,28,30,-1,-1,-1,32,34,36,-1,38,40,-1,42,44,46,48,-1,50,-1,52,-1,-1,-1,54,-1,-1,56,58,60,62,64,66,68,70,72,74,-1,76,-1,-1,-1,-1,-1,-1,-1,-1,-1,-1,-1,-1,-1,-1,-1,-1,-1,-1,-1,-1,-1,-1,-1,-1,-1,-1],"split_conditions":[-2.6020547E-2,1.0977134E0,5.345902E-1,-4.4912577E-2,-4.2894498E-2,3.1768987E-1,9.7222155E-1,1.2200904E-1,-3.302495E-2,7.575836E-2,1.8750049E-1,3.1298047E-1,8.2315975E-1,9.7458935E-1,1.6235632E-1,3.132376E-2,-2.6338533E-2,7.6154076E-2,6.419616E-1,1.4843546E-1,1.8336806E-1,-5.185162E-2,3.505152E-1,2.5743827E-1,5.6522634E-2,-6.611348E-3,1.2032646E0,8.3144844E-1,1.7795604E-1,-6.289462E-2,1.4662754E-2,-8.904087E-3,2.684987E-1,-5.7382174E-2,2.6870746E-2,6.256556E-2,2.7601242E-1,1.1308407E-2,-3.517402E-2,1.6455594E-2,3.606045E-2,3.913037E-1,3.914861E-3,2.447191E-2,2.3267824E-2,7.9937506E-1,2.0478455E-2,1.9295238E-2,1.9137038E-2,-5.3047847E-2,3.4672633E-2,5.1040273E-2,7.7595207E-4,-2.0040048E-2,3.1009063E-2,3.903923E-2,-2.2002574E-2,4.2872947E-2,-1.8527329E-2,-1.558002E-2,-6.378549E-2,2.640695E-2,-2.5570992E-2,-3.7371125E-2,-7.466974E-2,1.633481E-2,-5.9011336E-2,1.7460627E-2,-5.408131E-2,-1.4759742E-2,6.261316E-2,-6.086691E-2,3.2505993E-2,2.0798983E-2,-3.2848373E-2,4.9287472E-2,-3.234104E-2],"split_indices":[6,3,5,6,6,5,5,5,6,5,5,5,3,3,2,0,0,0,3,2,2,0,5,2,0,6,3,3,2,0,6,0,2,0,0,0,2,0,0,4,4,5,6,4,6,3,4,4,4,0,4,0,0,0,0,0,0,0,0,0,0,0,0,0,0,0,0,0,0,0,0,0,0,0,0,0,0],"split_type":[0,0,0,0,0,0,0,0,0,0,0,0,0,0,0,0,0,0,0,0,0,0,0,0,0,0,0,0,0,0,0,0,0,0,0,0,0,0,0,0,0,0,0,0,0,0,0,0,0,0,0,0,0,0,0,0,0,0,0,0,0,0,0,0,0,0,0,0,0,0,0,0,0,0,0,0,0],"sum_hessian":[1.6968028E2,3.066306E1,1.3901723E2,1.795923E1,1.2703828E1,6.3212086E1,7.580514E1,4.4871597E0,1.3472072E1,7.725863E0,4.977965E0,3.610653E1,2.7105555E1,6.956382E1,6.2413163E0,1.9939294E0,2.4932303E0,5.987816E0,7.484256E0,3.2414346E0,4.4844284E0,2.2418668E0,2.736098E0,3.485796E1,1.2485688E0,1.2435475E1,1.467008E1,4.338943E1,2.6174387E1,1.7480094E0,4.493307E0,1.7473559E0,5.7369E0,1.495407E0,1.7460276E0,1.7481854E0,2.7362428E0,1.2480605E0,1.4880376E0,2.8627686E1,6.2302756E0,3.7239594E0,8.711515E0,9.942708E0,4.727372E0,3.4659073E1,8.730359E0,1.2472079E1,1.3702309E1,1.24515E0,3.248157E0,4.23914E0,1.4977598E0,1.4912711E0,1.2449718E0,1.4986374E0,2.712905E1,3.991179E0,2.2390966E0,1.4903067E0,2.2336526E0,4.729696E0,3.98182E0,5.9690633E0,3.973644E0,2.9887798E0,1.7385925E0,3.0926388E1,3.732683E0,1.9954585E0,6.7349005E0,1.7453924E0,1.07266865E1,1.4976404E0,1.2204668E1,1.9990002E0,1.249157E0],"tree_param":{"num_deleted":"0","num_feature":"7","num_nodes":"77","size_leaf_vector":"1"}},{"base_weights":[2.2329025E-2,3.2120392E-1,-5.9563227E-2,-1.3489767E-2,6.4369285E-1,-2.67373E-1,1.9137943E-1,4.5209953E-1,-4.7784284E-1,8.3521165E-2,9.9466693E-1,1.2933859E-1,-4.2655107E-1,6.1828244E-1,3.276033E-2,6.1195076E-2,-3.674444E-1,-7.7544767E-1,3.769169E-2,-2.68355E-1,3.673057E-2,1.2546399E0,1.981802E-2,-3.1015718E-1,6.365439E-1,-1.6024187E-1,-5.859549E-1,-3.4213284E-1,8.2759005E-1,-3.9320123E-1,2.928652E-1,7.861739E-3,-7.5063264E-1,-5.7546772E-2,-1.6471344E-1,3.1227777E-2,-6.172126E-1,2.969998E-2,7.211038E-2,-4.992008E-2,5.130566E-2,-6.7634165E-1,7.478222E-1,-1.8925834E-1,1.0613729E0,-3.0198732E-1,4.6274163E-2,-8.4816456E-1,-3.3760855E-1,-3.090763E-2,2.1611385E-3,1.0298734E0,-1.37696015E-2,-3.5885043E-2,-7.3738956E-1,6.714569E-1,-2.4809961E-1,-8.713964E-3,-4.9708534E-2,-3.721755E-2,1.8663427E-2,-1.6482769E-3,-5.9269585E-2,-5.585884E-2,-7.8016506E-3,6.15396E-2,-6.2367064E-3,1.7094154E-2,-3.7573915E-2,1.0124258E-2,6.484919E-2,-3.3888333E-2,2.3680285E-4,-5.9694618E-2,-4.4583264E-3,3.638225E-2,-3.722252E-2,1.5135685E-2,5.925873E-2,-2.1112869E-2,3.601095E-2,-6.7352846E-2,-1.5597738E-2,-3.113062E-4,4.04919E-2,-6.253853E-2,9.906539E-4],"categories":[],"categories_nodes":[],"categories_segments":[],"categories_sizes":[],"default_left":[0,0,0,0,0,0,0,0,0,0,0,0,0,0,0,0,0,0,0,0,0,0,0,0,0,0,0,0,0,0,0,0,0,0,0,0,0,0,0,0,0,0,0,0,0,0,0,0,0,0,0,0,0,0,0,0,0,0,0,0,0,0,0,0,0,0,0,0,0,0,0,0,0,0,0,0,0,0,0,0,0,0,0,0,0,0,0],"id":5,"left_children":[1,3,5,7,9,11,13,15,17,19,21,23,25,27,29,-1,31,33,-1,35,-1,37,39,41,43,45,47,49,51,53,55,-1,57,-1,59,-1,61,-1,-1,-1,-1,63,65,67,69,71,-1,73,75,-1,-1,77,-1,79,81,83,85,-1,-1,-1,-1,-1,-1,-1,-1,-1,-1,-1,-1,-1,-1,-1,-1,-1,-1,-1,-1,-1,-1,-1,-1,-1,-1,-1,-1,-1,-1],"loss_changes":[4.2769356E0,4.0638723E0,7.2158785E0,4.4137144E0,3.6828532E0,4.8273444E0,4.2335587E0,6.907108E0,4.3259754E0,2.1376588E0,2.9364262E0,5.192302E0,2.2054234E0,3.6928735E0,5.3067107E0,0E0,1.2681193E0,1.8086638E0,0E0,2.3264046E0,0E0,2.8440762E-1,4.586159E0,5.4171424E0,3.9651804E0,3.612533E0,1.8955708E0,4.2480725E-1,3.4561596E0,2.2108283E0,6.242275E0,0E0,3.1508505E-1,0E0,1.6762913E0,0E0,1.6151913E0,0E0,0E0,0E0,0E0,2.1062512E0,1.7273111E0,1.598765E0,1.2017546E0,2.2981238E0,0E0,3.9968472E0,8.719554E0,0E0,0E0,1.0219746E0,0E0,3.2187133E0,1.9698858E0,1.6669688E0,3.501884E0,0E0,0E0,0E0,0E0,0E0,0E0,0E0,0E0,0E0,0E0,0E0,0E0,0E0,0E0,0E0,0E0,0E0,0E0,0E0,0E0,0E0,0E0,0E0,0E0,0E0,0E0,0E0,0E0,0E0,0E0],"parents":[2147483647,0,0,1,1,2,2,3,3,4,4,5,5,6,6,7,7,8,8,9,9,10,10,11,11,12,12,13,13,14,14,16,16,17,17,19,19,21,21,22,22,23,23,24,24,25,25,26,26,27,27,28,28,29,29,30,30,32,32,34,34,36,36,41,41,42,42,43,43,44,44,45,45,47,47,48,48,51,51,53,53,54,54,55,55,56,56],"right_children":[2,4,6,8,10,12,14,16,18,20,22,24,26,28,30,-1,32,34,-1,36,-1,38,40,42,44,46,48,50,52,54,56,-1,58,-1,60,-1,62,-1,-1,-1,-1,64,66,68,70,72,-1,74,76,-1,-1,78,-1,80,82,84,86,-1,-1,-1,-1,-1,-1,-1,-1,-1,-1,-1,-1,-1,-1,-1,-1,-1,-1,-1,-1,-1,-1,-1,-1,-1,-1,-1,-1,-1,-1],"split_conditions":[-2.3509206E-2,-4.45255E-2,6.4899E-1,1.0313032E0,8.7618524E-1,6.508176E-1,7.6000214E-1,2.1824026E-1,1.86816E0,1.0141741E-1,7.684148E-2,-4.792981E-3,-3.0761639E-2,1.08907826E-1,1.5086276E-2,6.1195076E-2,3.6799926E-1,1.6030447E-1,3.769169E-2,6.3996154E-1,3.673057E-2,7.575836E-2,2.750452E-1,6.0750616E-1,-2.1511566E-2,1.8035398E0,3.0454123E-2,-2.5341732E-3,1.1986074E-1,1.6313577E-1,5.3354457E-2,7.861739E-3,-3.302495E-2,-5.7546772E-2,1.241813E0,3.1227777E-2,1.8636493E-2,2.969998E-2,7.211038E-2,-4.992008E-2,5.130566E-2,2.2784822E-1,3.3898425E-1,-7.111596E-2,4.9975896E-1,1.5195994E-1,4.6274163E-2,4.503813E-1,2.352946E-1,-3.090763E-2,2.1611385E-3,-7.2233275E-2,-1.37696015E-2,8.804906E-1,8.315792E-1,1.2085715E-1,6.848382E-2,-8.713964E-3,-4.9708534E-2,-3.721755E-2,1.8663427E-2,-1.6482769E-3,-5.9269585E-2,-5.585884E-2,-7.8016506E-3,6.15396E-2,-6.2367064E-3,1.7094154E-2,-3.7573915E-2,1.0124258E-2,6.484919E-2,-3.3888333E-2,2.3680285E-4,-5.9694618E-2,-4.4583264E-3,3.638225E-2,-3.722252E-2,1.5135685E-2,5.925873E-2,-2.1112869E-2,3.601095E-2,-6.7352846E-2,-1.5597738E-2,-3.113062E-4,4.04919E-2,-6.253853E-2,9.906539E-4],"split_indices":[6,0,5,3,3,3,5,5,3,0,0,6,0,2,6,0,5,5,0,3,0,5,2,3,0,3,0,0,0,2,0,0,6,0,3,0,0,0,0,0,0,5,5,0,3,2,0,5,5,0,0,0,0,3,5,2,0,0,0,0,0,0,0,0,0,0,0,0,0,0,0,0,0,0,0,0,0,0,0,0,0,0,0,0,0,0,0],"split_type":[0,0,0,0,0,0,0,0,0,0,0,0,0,0,0,0,0,0,0,0,0,0,0,0,0,0,0,0,0,0,0,0,0,0,0,0,0,0,0,0,0,0,0,0,0,0,0,0,0,0,0,0,0,0,0,0,0,0,0,0,0,0,0,0,0,0,0,0,0,0,0,0,0,0,0,0,0,0,0,0,0,0,0,0,0,0,0],"sum_hessian":[1.729616E2,3.6570652E1,1.3639095E2,1.841593E1,1.8154722E1,7.457155E1,6.18194E1,9.208901E0,9.207029E0,7.470081E0,1.0684642E1,2.1407116E1,5.316443E1,1.596195E1,4.5857452E1,4.488491E0,4.7204103E0,7.71363E0,1.4933991E0,5.2309146E0,2.2391658E0,8.208569E0,2.4760728E0,1.1677236E1,9.729881E0,2.0657719E1,3.250671E1,2.7426426E0,1.3219307E1,1.7191702E1,2.866575E1,2.2412517E0,2.4791586E0,4.229045E0,3.4845853E0,1.2475326E0,3.9833822E0,2.7366269E0,5.471942E0,1.2346432E0,1.2414296E0,8.94273E0,2.734506E0,3.4935203E0,6.236361E0,1.8910711E1,1.7470069E0,1.463719E1,1.786952E1,1.2460332E0,1.4966094E0,1.1226657E1,1.9926503E0,8.976787E0,8.214915E0,1.6721832E1,1.1943918E1,1.2460023E0,1.2331563E0,1.492704E0,1.9918814E0,2.4855554E0,1.4978267E0,4.220088E0,4.722642E0,1.4959317E0,1.2385741E0,1.9979339E0,1.4955864E0,1.7427628E0,4.493598E0,7.955007E0,1.0955704E1,9.662763E0,4.974427E0,4.720663E0,1.3148858E1,2.4947603E0,8.731896E0,6.2331543E0,2.7436326E0,2.486024E0,5.728891E0,2.9974856E0,1.3724346E1,1.7449222E0,1.0198997E1],"tree_param":{"num_deleted":"0","num_feature":"7","num_nodes":"87","size_leaf_vector":"1"}},{"base_weights":[1.2475912E-2,6.1410204E-2,-5.00553E-1,-3.2641485E-1,1.3613762E-1,2.8553745E-1,-7.165154E-1,-1.0623568E-1,-9.0813243E-1,-2.3844322E-2,4.1533396E-1,-4.4594253E-3,3.0801907E-2,-9.8946375E-1,9.295004E-2,-2.4583489E-1,5.489962E-2,-6.5934877E-3,-1.0530883E0,5.763057E-2,-5.4792188E-2,9.7815865E-1,1.1039741E-1,-1.2050472E0,3.4991608E-3,4.0301643E-2,-3.3153556E-2,-3.976233E-1,4.6423033E-1,-6.832628E-2,-1.5469985E-2,8.7789434E-1,-9.675325E-2,1.20890886E-1,1.172379E0,-5.122004E-1,2.8424048E-1,-2.4404064E-2,-6.666152E-2,-3.7812237E-3,-6.0220517E-2,4.008297E-3,3.4175333E-2,1.0111281E-2,5.668506E-2,-3.0714838E-2,-1.5283723E-3,-5.4169394E-2,4.9216434E-2,7.6102816E-2,1.8540956E-2,3.344218E-2,-4.277552E-2,4.438935E-2,-9.579875E-3],"categories":[],"categories_nodes":[],"categories_segments":[],"categories_sizes":[],"default_left":[0,0,0,0,0,0,0,0,0,0,0,0,0,0,0,0,0,0,0,0,0,0,0,0,0,0,0,0,0,0,0,0,0,0,0,0,0,0,0,0,0,0,0,0,0,0,0,0,0,0,0,0,0,0,0],"id":6,"left_children":[1,3,5,7,9,11,13,15,17,19,21,-1,-1,23,25,27,-1,-1,29,-1,31,33,35,37,-1,-1,-1,39,41,-1,-1,43,45,47,49,51,53,-1,-1,-1,-1,-1,-1,-1,-1,-1,-1,-1,-1,-1,-1,-1,-1,-1,-1],"loss_changes":[4.353828E0,4.6263056E0,2.768773E0,3.2126243E0,5.962249E0,5.4665464E-1,2.772861E0,3.6110046E0,6.4444447E-1,3.1820703E0,8.232775E0,0E0,0E0,2.1764736E0,2.6768029E0,2.192192E0,0E0,0E0,9.111805E-1,0E0,3.3889508E0,2.6805248E0,3.6792145E0,5.3813934E-2,0E0,0E0,0E0,4.035598E0,2.603352E-1,0E0,0E0,4.1610384E-1,2.7793944E0,5.481396E0,3.276842E0,3.6063359E0,7.6843796E0,0E0,0E0,0E0,0E0,0E0,0E0,0E0,0E0,0E0,0E0,0E0,0E0,0E0,0E0,0E0,0E0,0E0,0E0],"parents":[2147483647,0,0,1,1,2,2,3,3,4,4,5,5,6,6,7,7,8,8,9,9,10,10,13,13,14,14,15,15,18,18,20,20,21,21,22,22,23,23,27,27,28,28,31,31,32,32,33,33,34,34,35,35,36,36],"right_children":[2,4,6,8,10,12,14,16,18,20,22,-1,-1,24,26,28,-1,-1,30,-1,32,34,36,38,-1,-1,-1,40,42,-1,-1,44,46,48,50,52,54,-1,-1,-1,-1,-1,-1,-1,-1,-1,-1,-1,-1,-1,-1,-1,-1,-1,-1],"split_conditions":[6.953895E1,1.097925E-1,3.8251448E-1,1.4595078E-2,6.4899E-1,2.0188938E-1,8.9040893E-1,2.447191E-2,4.81444E1,1.1300935E-1,7.828961E-1,-4.4594253E-3,3.0801907E-2,3.2006738E-1,2.457457E-2,5.4627182E1,5.489962E-2,-6.5934877E-3,2.2689082E-2,5.763057E-2,1.4634157E1,3.2159153E1,8.17358E-1,6.7553386E-2,3.4991608E-3,4.0301643E-2,-3.3153556E-2,4.7645428E1,5.058363E-1,-6.832628E-2,-1.5469985E-2,2.5559843E-1,2.3976583E1,2.0673047E-1,5.8160736E1,2.2021553E-2,8.9599913E-1,-2.4404064E-2,-6.666152E-2,-3.7812237E-3,-6.0220517E-2,4.008297E-3,3.4175333E-2,1.0111281E-2,5.668506E-2,-3.0714838E-2,-1.5283723E-3,-5.4169394E-2,4.9216434E-2,7.6102816E-2,1.8540956E-2,3.344218E-2,-4.277552E-2,4.438935E-2,-9.579875E-3],"split_indices":[1,2,5,0,5,2,5,4,1,2,5,0,0,2,4,1,0,0,4,0,1,1,5,0,0,0,0,1,5,0,0,2,1,2,1,4,5,0,0,0,0,0,0,0,0,0,0,0,0,0,0,0,0,0,0],"split_type":[0,0,0,0,0,0,0,0,0,0,0,0,0,0,0,0,0,0,0,0,0,0,0,0,0,0,0,0,0,0,0,0,0,0,0,0,0,0,0,0,0,0,0,0,0,0,0,0,0,0,0,0,0,0,0],"sum_hessian":[1.7120233E2,1.5709813E2,1.4104207E1,2.4835777E1,1.3226234E2,2.9703057E0,1.1133901E1,1.8874453E1,5.9613256E0,8.4663826E1,4.7598522E1,1.7341948E0,1.236111E0,8.160013E0,2.9738882E0,1.7626923E1,1.2475301E0,1.2385274E0,4.7227983E0,1.2410938E0,8.342273E1,1.5950592E1,3.164793E1,6.6661158E0,1.4938973E0,1.4963616E0,1.4775267E0,1.4885017E1,2.7419047E0,2.7333112E0,1.9894869E0,2.7338834E0,8.068885E1,3.2459142E0,1.2704678E1,6.4831123E0,2.5164818E1,1.7402227E0,4.925893E0,1.1420634E1,3.4643831E0,1.4928167E0,1.249088E0,1.2425216E0,1.4913616E0,8.209876E0,7.247897E1,1.2490566E0,1.9968578E0,8.219907E0,4.484771E0,1.24655E0,5.2365627E0,1.0712056E1,1.4452761E1],"tree_param":{"num_deleted":"0","num_feature":"7","num_nodes":"55","size_leaf_vector":"1"}},{"base_weights":[3.4015693E-2,1.0858524E-1,-3.0841613E-1,5.449285E-1,8.007431E-3,2.4268018E-1,-4.688916E-1,1.2892693E-1,8.5723597E-1,-1.3694677E-1,3.456485E-1,-3.6515832E-2,5.928839E-1,-6.897291E-1,1.9073981E-1,4.195429E-1,-4.7668207E-2,3.2366455E-1,6.6683225E-2,-2.1729249E-1,5.4976416E-1,4.8663405E-1,-5.160969E-1,1.0263697E0,-6.1431946E-3,-7.8866845E-1,8.674546E-3,7.328189E-1,-5.407829E-2,6.814825E-1,-1.9152322E-1,6.77564E-1,-2.4300002E-1,-2.6686764E-1,8.723488E-1,1.1898551E0,-1.9965397E-1,6.4862514E-1,-1.7075528E-1,1.753825E-2,-4.6442892E-2,1.2613334E-2,6.417723E-2,-3.5589722E-1,-1.1336273E0,1.4458298E-3,4.936532E-2,5.799784E-2,9.166959E-3,3.396685E-2,-4.1836753E-2,-1.4083617E-3,5.4401632E-2,-3.8357712E-2,1.8993786E-2,4.040759E-3,-1.9780694E-2,5.4948937E-2,1.28781E-2,1.2259609E-2,7.1848236E-2,-5.9197325E-2,2.8116195E-2,-4.038623E-3,4.339415E-2,3.6107298E-2,-3.369855E-2,-3.953507E-2,2.3145957E-2,-7.0435377E-3,-6.766983E-2],"categories":[],"categories_nodes":[],"categories_segments":[],"categories_sizes":[],"default_left":[0,0,0,0,0,0,0,0,0,0,0,0,0,0,0,0,0,0,0,0,0,0,0,0,0,0,0,0,0,0,0,0,0,0,0,0,0,0,0,0,0,0,0,0,0,0,0,0,0,0,0,0,0,0,0,0,0,0,0,0,0,0,0,0,0,0,0,0,0,0,0],"id":7,"left_children":[1,3,5,7,9,11,13,15,17,19,21,-1,23,25,27,29,-1,31,-1,33,35,37,39,41,-1,43,-1,45,-1,47,49,51,53,55,57,59,61,63,65,-1,-1,-1,-1,67,69,-1,-1,-1,-1,-1,-1,-1,-1,-1,-1,-1,-1,-1,-1,-1,-1,-1,-1,-1,-1,-1,-1,-1,-1,-1,-1],"loss_changes":[4.4649596E0,6.2824025E0,2.8813767E0,3.3738513E0,5.7947245E0,3.0623746E0,3.7118368E0,4.3874288E0,3.4175253E0,4.6920576E0,4.5709715E0,0E0,2.0578737E0,1.7279367E0,5.5845003E0,1.8413159E0,0E0,1.861845E0,0E0,4.2794495E0,4.537609E0,3.419589E0,2.2882123E0,4.6945667E-1,0E0,2.1186886E0,0E0,9.5099425E-1,0E0,1.622796E0,2.808999E0,1.6162117E0,1.5939405E0,3.2735753E0,2.0378375E-1,8.0980015E-1,4.4050984E0,4.090167E0,3.602487E0,0E0,0E0,0E0,0E0,3.552834E0,1.7605886E0,0E0,0E0,0E0,0E0,0E0,0E0,0E0,0E0,0E0,0E0,0E0,0E0,0E0,0E0,0E0,0E0,0E0,0E0,0E0,0E0,0E0,0E0,0E0,0E0,0E0,0E0],"parents":[2147483647,0,0,1,1,2,2,3,3,4,4,5,5,6,6,7,7,8,8,9,9,10,10,12,12,13,13,14,14,15,15,17,17,19,19,20,20,21,21,22,22,23,23,25,25,27,27,29,29,30,30,31,31,32,32,33,33,34,34,35,35,36,36,37,37,38,38,43,43,44,44],"right_children":[2,4,6,8,10,12,14,16,18,20,22,-1,24,26,28,30,-1,32,-1,34,36,38,40,42,-1,44,-1,46,-1,48,50,52,54,56,58,60,62,64,66,-1,-1,-1,-1,68,70,-1,-1,-1,-1,-1,-1,-1,-1,-1,-1,-1,-1,-1,-1,-1,-1,-1,-1,-1,-1,-1,-1,-1,-1,-1,-1],"split_conditions":[1.3367138E0,-2.4117384E-2,2.259608E-2,-4.45255E-2,1.4662754E-2,1.4759697E0,3.7422486E-2,-6.6980965E-2,8.7618524E-1,4.2715453E-2,4.3468066E-2,-3.6515832E-2,-1.1798171E-2,2.6553757E0,2.1251184E-1,1.0718449E0,-4.7668207E-2,5.7055717E1,6.6683225E-2,1.2300001E0,5.2273247E-2,6.70693E1,6.0256785E-1,-3.025711E-2,-6.1431946E-3,-1.9515095E-3,8.674546E-3,9.852237E-3,-5.407829E-2,-1.382716E-1,2.8881002E-2,-2.5341732E-3,6.15115E1,6.3210005E-1,2.0400813E-2,4.8310913E-2,5.78501E-1,6.887682E-1,7.9937506E-1,1.753825E-2,-4.6442892E-2,1.2613334E-2,6.417723E-2,-1.6685205E-2,1.4544129E0,1.4458298E-3,4.936532E-2,5.799784E-2,9.166959E-3,3.396685E-2,-4.1836753E-2,-1.4083617E-3,5.4401632E-2,-3.8357712E-2,1.8993786E-2,4.040759E-3,-1.9780694E-2,5.4948937E-2,1.28781E-2,1.2259609E-2,7.1848236E-2,-5.9197325E-2,2.8116195E-2,-4.038623E-3,4.339415E-2,3.6107298E-2,-3.369855E-2,-3.953507E-2,2.3145957E-2,-7.0435377E-3,-6.766983E-2],"split_indices":[3,6,4,0,6,3,4,0,3,4,4,0,6,3,0,3,0,1,0,3,4,1,3,6,0,6,0,6,0,0,4,0,1,3,4,4,3,3,3,0,0,0,0,0,3,0,0,0,0,0,0,0,0,0,0,0,0,0,0,0,0,0,0,0,0,0,0,0,0,0,0],"split_type":[0,0,0,0,0,0,0,0,0,0,0,0,0,0,0,0,0,0,0,0,0,0,0,0,0,0,0,0,0,0,0,0,0,0,0,0,0,0,0,0,0,0,0,0,0,0,0,0,0,0,0,0,0,0,0,0,0,0,0,0,0,0,0,0,0,0,0,0,0,0,0],"sum_hessian":[1.7254504E2,1.4225076E2,3.0294285E1,2.5819286E1,1.1643147E2,6.716518E0,2.3577766E1,1.1677448E1,1.4141838E1,8.187553E1,3.4555946E1,1.4903536E0,5.226164E0,1.7629852E1,5.9479146E0,9.688308E0,1.9891404E0,7.463038E0,6.6788006E0,7.391141E1,7.964118E0,3.0071417E1,4.48453E0,2.9845922E0,2.241572E0,1.5894449E1,1.7354033E0,4.4682097E0,1.4797046E0,6.700735E0,2.9875722E0,4.473496E0,2.989542E0,7.1417244E1,2.4941661E0,3.9783957E0,3.9857223E0,2.4137009E1,5.934408E0,1.4949989E0,2.989531E0,1.2382731E0,1.746319E0,7.9510713E0,7.9433784E0,1.4821815E0,2.9860282E0,2.740185E0,3.96055E0,1.2489458E0,1.7386264E0,1.9875748E0,2.4859211E0,1.497637E0,1.491905E0,1.939981E1,5.201743E1,1.2469306E0,1.2472354E0,1.2379888E0,2.740407E0,1.4975134E0,2.4882088E0,5.724643E0,1.8412365E1,1.9821815E0,3.9522266E0,5.2157583E0,2.7353127E0,1.7371595E0,6.2062187E0],"tree_param":{"num_deleted":"0","num_feature":"7","num_nodes":"71","size_leaf_vector":"1"}},{"base_weights":[-9.793248E-4,4.4294176E-1,-6.51385E-2,8.608514E-1,2.799089E-1,-6.64718E-1,-2.7633538E-2,6.091794E-2,-1.1864879E-2,-8.127098E-2,7.457701E-1,-9.524062E-1,2.2977231E-2,3.1097105E-2,-4.6206877E-1,2.5023893E-1,-8.351282E-1,9.8879194E-1,1.6895123E-3,-3.6015108E-1,-6.8888746E-2,-7.166903E-2,2.7403355E-1,3.272263E-1,-7.8521526E-1,-1.22578874E-1,7.911688E-1,-5.3435482E-2,-1.1451523E-2,2.0195732E-2,6.2452853E-2,-3.4030955E-2,1.3081859E-2,-3.063554E-2,-6.331312E-2,8.4096795E-1,9.7708575E-2,-1.4920044E-1,5.653916E-2,-1.1312987E0,-2.4678E-1,-3.8232386E-2,1.424587E-2,5.1051635E-2,1.0276217E-2,-7.2257267E-3,1.1552826E-2,-1.2819077E-3,5.4613806E-2,-3.1519584E-2,1.3671999E-2,1.0956858E-2,-3.0798448E-2,-6.298801E-2,-2.2446668E-2,3.0878901E-2,-3.6117673E-2],"categories":[],"categories_nodes":[],"categories_segments":[],"categories_sizes":[],"default_left":[0,0,0,0,0,0,0,0,0,0,0,0,0,0,0,0,0,0,0,0,0,0,0,0,0,0,0,0,0,0,0,0,0,0,0,0,0,0,0,0,0,0,0,0,0,0,0,0,0,0,0,0,0,0,0,0,0],"id":8,"left_children":[1,3,5,7,9,11,13,-1,-1,15,17,19,-1,21,23,25,27,29,-1,31,-1,33,35,37,39,41,43,-1,-1,-1,-1,-1,-1,45,-1,47,49,51,-1,53,55,-1,-1,-1,-1,-1,-1,-1,-1,-1,-1,-1,-1,-1,-1,-1,-1],"loss_changes":[4.965221E0,1.258945E0,3.4065084E0,2.525414E0,2.9745603E0,3.3235986E0,3.6981936E0,0E0,0E0,2.8722417E0,1.2922058E0,1.3756413E0,0E0,3.2183242E0,4.658532E0,1.7448719E0,2.4869132E-1,3.5956E-1,0E0,1.0667338E0,0E0,4.413504E0,3.7459044E0,2.3580732E0,2.0572705E0,1.710045E0,2.5702572E-1,0E0,0E0,0E0,0E0,0E0,0E0,2.6808639E0,0E0,1.977871E0,4.05452E0,9.041237E-1,0E0,7.90472E-2,2.9885E0,0E0,0E0,0E0,0E0,0E0,0E0,0E0,0E0,0E0,0E0,0E0,0E0,0E0,0E0,0E0,0E0],"parents":[2147483647,0,0,1,1,2,2,3,3,4,4,5,5,6,6,9,9,10,10,11,11,13,13,14,14,15,15,16,16,17,17,19,19,21,21,22,22,23,23,24,24,25,25,26,26,33,33,35,35,36,36,37,37,39,39,40,40],"right_children":[2,4,6,8,10,12,14,-1,-1,16,18,20,-1,22,24,26,28,30,-1,32,-1,34,36,38,40,42,44,-1,-1,-1,-1,-1,-1,46,-1,48,50,52,-1,54,56,-1,-1,-1,-1,-1,-1,-1,-1,-1,-1,-1,-1,-1,-1,-1,-1],"split_conditions":[-3.302495E-2,4.739267E-2,7.575836E-2,2.4960646E-1,2.425736E-1,2.4960646E-1,6.879265E1,6.091794E-2,-1.1864879E-2,1.7088617E-1,3.528397E-1,1.6258495E-1,2.2977231E-2,1.5512461E-2,2.2745503E-2,1.1783529E-1,3.01405E-2,2.6771656E-1,1.6895123E-3,1.2916395E-1,-6.8888746E-2,9.4076717E-1,2.0500459E-2,2.248183E-2,2.8696132E-1,2.464529E-2,1.8336806E-1,-5.3435482E-2,-1.1451523E-2,2.0195732E-2,6.2452853E-2,-3.4030955E-2,1.3081859E-2,5.3735252E1,-6.331312E-2,3.533731E1,6.8686914E-1,7.920111E1,5.653916E-2,3.3363007E-2,7.110749E-1,-3.8232386E-2,1.424587E-2,5.1051635E-2,1.0276217E-2,-7.2257267E-3,1.1552826E-2,-1.2819077E-3,5.4613806E-2,-3.1519584E-2,1.3671999E-2,1.0956858E-2,-3.0798448E-2,-6.298801E-2,-2.2446668E-2,3.0878901E-2,-3.6117673E-2],"split_indices":[6,5,5,2,5,2,1,0,0,5,5,2,0,6,4,5,4,5,0,2,0,5,6,4,2,4,2,0,0,0,0,0,0,1,0,1,5,1,0,4,5,0,0,0,0,0,0,0,0,0,0,0,0,0,0,0,0],"split_type":[0,0,0,0,0,0,0,0,0,0,0,0,0,0,0,0,0,0,0,0,0,0,0,0,0,0,0,0,0,0,0,0,0,0,0,0,0,0,0,0,0,0,0,0,0,0,0,0,0,0,0,0,0,0,0,0,0],"sum_hessian":[1.7231773E2,2.1014359E1,1.5130338E2,4.696183E0,1.6318176E1,7.922677E0,1.433807E2,3.4602256E0,1.2359577E0,9.656831E0,6.6613455E0,6.4301286E0,1.4925485E0,1.2712349E2,1.6257214E1,7.1712966E0,2.4855337E0,4.6763597E0,1.9849857E0,3.4597208E0,2.9704077E0,8.982923E1,3.7294262E1,4.718793E0,1.1538421E1,4.70318E0,2.468117E0,1.2431705E0,1.2423632E0,2.2259831E0,2.4503767E0,2.2206092E0,1.2391115E0,8.783771E1,1.9915216E0,7.9531674E0,2.9341093E1,3.4736185E0,1.2451742E0,6.3535447E0,5.184876E0,1.485736E0,3.2174437E0,1.2385535E0,1.2295634E0,6.1515945E1,2.6321764E1,1.9897465E0,5.963421E0,5.2017336E0,2.413936E1,2.2380474E0,1.2355711E0,4.6348276E0,1.7187166E0,1.7342564E0,3.4506195E0],"tree_param":{"num_deleted":"0","num_feature":"7","num_nodes":"57","size_leaf_vector":"1"}}]},"name":"gbtree"},"learner_model_param":{"base_score":"[4.861111E-1]","boost_from_average":"1","num_class":"0","num_feature":"7","num_target":"1"},"objective":{"name":"binary:logistic","reg_loss_param":{"scale_pos_weight":"1"}}},"version":[3,2,0]}