{"learner":{"attributes":{},"feature_names":[],"feature_types":[],"gradient_booster":{"model":{"cats":{"enc":[],"feature_segments":[],"sorted_idx":[]},"gbtree_model_param":{"num_parallel_tree":"1","num_trees":"1"},"iteration_indptr":[0,1],"tree_info":[0],"trees":[{"base_weights":[-2.0398699E-2,4.8409335E-2,-5.7933515E-1,3.8517475E-1,-4.002942E-3,-9.778614E-1,-1.3311183E-1,6.508107E-1,1.1287139E-1,-1.620674E-1,1.2767093E-1,-1.2476063E0,-4.7243166E-1,7.1571544E-2,-8.617575E-1,1.1448506E0,1.2865038E-1,-5.932976E-1,3.622725E-1,-1.1253636E-1,-9.170559E-1,7.8427595E-1,6.079452E-2,4.0503647E-3,-1.4106951E0,3.2241678E-1,-9.005303E-1,2.0718074E-1,-3.8794268E-2,-1.4204809E-2,-1.0547653E0,-5.320017E-3,1.3622004E0,-5.9921825E-1,6.401007E-1,-8.5805136E-1,1.5290071E-2,5.575729E-1,-4.4347024E-1,5.849034E-2,-2.831993E-1,-4.682378E-1,-6.448973E-2,1.0288839E0,5.2054603E-2,2.1777534E-1,-1.3859223E-1,-9.898974E-1,-9.115853E-2,3.3104885E-2,-1.5580453E-2,1.5290071E-2,-1.2683398E0,-1.9902132E-1,5.2587855E-1,-6.501418E-2,-1.5580453E-2,2.8154233E-2,7.3264584E-2,-5.9304226E-2,1.7652718E-2,5.3609353E-2,-1.2552175E-2,6.7200013E-3,-5.664329E-2,3.6516394E-2,-3.2459985E-2,2.2305539E-2,-5.5531394E-2,4.771331E-3,-6.018136E-2,-3.6845297E-2,-1.859995E-3,4.0503647E-3,-3.5660647E-2,1.7652718E-2,5.6738045E-2,2.8154233E-2,-2.0052182E-2,2.2025253E-3,3.9896466E-2,-3.4459103E-2,-1.420224E-3,-1.8774588E-2,-8.294781E-2,-8.1345074E-2,-1.4204809E-2,2.7633915E-2,-3.1789307E-2,5.6809224E-2,6.4818994E-3],"categories":[],"categories_nodes":[],"categories_segments":[],"categories_sizes":[],"default_left":[0,0,0,0,0,0,0,0,0,0,0,0,0,0,0,0,0,0,0,0,0,0,0,0,0,0,0,0,0,0,0,0,0,0,0,0,0,0,0,0,0,0,0,0,0,0,0,0,0,0,0,0,0,0,0,0,0,0,0,0,0,0,0,0,0,0,0,0,0,0,0,0,0,0,0,0,0,0,0,0,0,0,0,0,0,0,0,0,0,0,0],"id":0,"left_children":[1,3,5,7,9,11,13,15,17,19,21,23,25,27,29,31,33,35,37,39,41,43,45,-1,47,49,51,53,-1,-1,55,-1,57,59,61,63,-1,65,67,69,71,73,-1,75,77,79,81,83,-1,-1,-1,-1,85,87,89,-1,-1,-1,-1,-1,-1,-1,-1,-1,-1,-1,-1,-1,-1,-1,-1,-1,-1,-1,-1,-1,-1,-1,-1,-1,-1,-1,-1,-1,-1,-1,-1,-1,-1,-1,-1],"loss_changes":[1.7435886E1,7.131333E0,8.706398E0,3.8622541E0,7.316234E0,2.9677029E0,3.7305665E0,6.9036694E0,5.1600018E0,5.87038E0,8.37398E0,3.6683197E0,3.927336E0,2.4739685E0,3.1038904E-1,3.9300385E0,5.7497206E0,2.0970562E0,3.6101775E0,4.4252977E0,1.0179214E0,3.1066504E0,5.5121517E0,0E0,7.403183E-1,1.1707051E0,3.5871754E0,2.4531264E0,0E0,0E0,2.7587128E-1,0E0,1.5777779E-1,4.031912E0,3.715176E0,1.8478398E0,0E0,4.1525264E0,3.3004904E0,3.6704843E0,8.429934E0,8.608358E-1,0E0,5.419321E-1,1.4927493E0,9.88041E0,4.698121E0,3.26021E0,0E0,0E0,0E0,0E0,1.5564623E0,3.2080827E0,2.377394E0,0E0,0E0,0E0,0E0,0E0,0E0,0E0,0E0,0E0,0E0,0E0,0E0,0E0,0E0,0E0,0E0,0E0,0E0,0E0,0E0,0E0,0E0,0E0,0E0,0E0,0E0,0E0,0E0,0E0,0E0,0E0,0E0,0E0,0E0,0E0,0E0],"parents":[2147483647,0,0,1,1,2,2,3,3,4,4,5,5,6,6,7,7,8,8,9,9,10,10,11,11,12,12,13,13,14,14,15,15,16,16,17,17,18,18,19,19,20,20,21,21,22,22,24,24,25,25,26,26,27,27,30,30,32,32,33,33,34,34,35,35,37,37,38,38,39,39,40,40,41,41,43,43,44,44,45,45,46,46,47,47,52,52,53,53,54,54],"right_children":[2,4,6,8,10,12,14,16,18,20,22,24,26,28,30,32,34,36,38,40,42,44,46,-1,48,50,52,54,-1,-1,56,-1,58,60,62,64,-1,66,68,70,72,74,-1,76,78,80,82,84,-1,-1,-1,-1,86,88,90,-1,-1,-1,-1,-1,-1,-1,-1,-1,-1,-1,-1,-1,-1,-1,-1,-1,-1,-1,-1,-1,-1,-1,-1,-1,-1,-1,-1,-1,-1,-1,-1,-1,-1,-1,-1],"split_conditions":[1.8192645E-2,9.111597E-3,1.8704474E-2,1.7505963E-3,1.4171995E-2,9.123722E-1,2.7774503E-2,6.4078636E1,6.5238273E-1,9.444468E-1,1.464919E-2,9.331165E-3,9.414086E-1,1.1925682E-1,2.4183858E-3,-1.1891038E-2,7.932434E-3,2.7293712E-2,9.3548226E-1,5.6368954E1,1.1982948E-2,7.739115E-1,9.868859E-3,4.0503647E-3,1.5807763E-2,6.9207695E1,4.411199E1,-1.8814887E-3,-3.8794268E-2,-1.4204809E-2,8.1589854E-1,-5.320017E-3,4.3093765E1,7.279285E1,7.372883E1,2.6025267E-3,1.5290071E-2,1.6125953E-2,9.70171E-3,1.4121076E-2,6.313426E1,5.6793636E1,-6.448973E-2,3.451145E1,1.4463704E-2,5.201732E1,-1.3058229E-2,6.9894394E1,-9.115853E-2,3.3104885E-2,-1.5580453E-2,1.5290071E-2,1.51436115E-2,2.014229E-2,2.8323207E-2,-6.501418E-2,-1.5580453E-2,2.8154233E-2,7.3264584E-2,-5.9304226E-2,1.7652718E-2,5.3609353E-2,-1.2552175E-2,6.7200013E-3,-5.664329E-2,3.6516394E-2,-3.2459985E-2,2.2305539E-2,-5.5531394E-2,4.771331E-3,-6.018136E-2,-3.6845297E-2,-1.859995E-3,4.0503647E-3,-3.5660647E-2,1.7652718E-2,5.6738045E-2,2.8154233E-2,-2.0052182E-2,2.2025253E-3,3.9896466E-2,-3.4459103E-2,-1.420224E-3,-1.8774588E-2,-8.294781E-2,-8.1345074E-2,-1.4204809E-2,2.7633915E-2,-3.1789307E-2,5.6809224E-2,6.4818994E-3],"split_indices":[6,4,4,6,4,5,4,1,5,5,4,4,5,0,0,6,4,0,5,1,4,5,0,0,4,1,1,0,0,0,5,0,1,1,1,6,0,6,6,4,1,1,0,1,4,1,6,1,0,0,0,0,4,4,0,0,0,0,0,0,0,0,0,0,0,0,0,0,0,0,0,0,0,0,0,0,0,0,0,0,0,0,0,0,0,0,0,0,0,0,0],"split_type":[0,0,0,0,0,0,0,0,0,0,0,0,0,0,0,0,0,0,0,0,0,0,0,0,0,0,0,0,0,0,0,0,0,0,0,0,0,0,0,0,0,0,0,0,0,0,0,0,0,0,0,0,0,0,0,0,0,0,0,0,0,0,0,0,0,0,0,0,0,0,0,0,0,0,0,0,0,0,0,0,0,0,0,0,0,0,0,0,0,0,0],"sum_hessian":[4.5163004E2,4.0293945E2,4.8690586E1,5.341059E1,3.4952884E2,2.5090557E1,2.3600029E1,2.6332664E1,2.7077929E1,1.5874124E2,1.907876E2,1.5402124E1,9.688433E0,1.9128445E1,4.4715843E0,1.2917911E1,1.3414753E1,6.7073765E0,2.0370552E1,1.500465E2,8.694748E0,1.6644232E1,1.7414337E2,1.7389495E0,1.3663175E1,3.477899E0,6.210534E0,1.7141073E1,1.9873708E0,1.7389495E0,2.732635E0,1.9873708E0,1.093054E1,5.46527E0,7.9494834E0,5.2168484E0,1.4905281E0,1.6644232E1,3.7263203E0,7.527167E1,7.4774826E1,4.968427E0,3.7263203E0,1.21726465E1,4.4715843E0,9.738117E1,7.67622E1,8.446326E0,5.2168484E0,2.2357922E0,1.2421068E0,1.4905281E0,4.720006E0,7.701062E0,9.440012E0,1.4905281E0,1.2421068E0,1.9873708E0,8.943169E0,3.2294776E0,2.2357922E0,5.2168484E0,2.732635E0,1.2421068E0,3.9747417E0,1.4905281E1,1.7389495E0,1.7389495E0,1.9873708E0,7.4029564E1,1.2421068E0,2.55874E1,4.9187428E1,1.7389495E0,3.2294776E0,2.2357922E0,9.936854E0,1.9873708E0,2.4842136E0,7.576852E1,2.1612658E1,1.1924225E1,6.4837975E1,5.2168484E0,3.2294776E0,2.9810562E0,1.7389495E0,2.732635E0,4.968427E0,2.9810562E0,6.4589553E0],"tree_param":{"num_deleted":"0","num_feature":"7","num_nodes":"91","size_leaf_vector":"1"}}]},"name":"gbtree"},"learner_model_param":{"base_score":"[5.3973216E-1]","boost_from_average":"1","num_class":"0","num_feature":"7","num_target":"1"},"objective":{"name":"binary:logistic","reg_loss_param":{"scale_pos_weight":"1"}}},"version":[3,2,0]}