{"learner":{"attributes":{"best_iteration":"3","best_score":"0.6960311790662153"},"feature_names":[],"feature_types":[],"gradient_booster":{"model":{"cats":{"enc":[],"feature_segments":[],"sorted_idx":[]},"gbtree_model_param":{"num_parallel_tree":"1","num_trees":"4"},"iteration_indptr":[0,1,2,3,4],"tree_info":[0,0,0,0],"trees":[{"base_weights":[-2.0398699E-2,4.8409335E-2,-5.7933515E-1,3.8517475E-1,-4.002942E-3,-9.778614E-1,-1.3311183E-1,6.508107E-1,1.1287139E-1,-1.620674E-1,1.2767093E-1,-1.2476063E0,-4.7243166E-1,7.1571544E-2,-8.617575E-1,1.1448506E0,1.2865038E-1,-5.932976E-1,3.622725E-1,-1.1253636E-1,-9.170559E-1,7.8427595E-1,6.079452E-2,4.0503647E-3,-1.4106951E0,3.2241678E-1,-9.005303E-1,2.0718074E-1,-3.8794268E-2,-1.4204809E-2,-1.0547653E0,-5.320017E-3,1.3622004E0,-5.9921825E-1,6.401007E-1,-8.5805136E-1,1.5290071E-2,5.575729E-1,-4.4347024E-1,5.849034E-2,-2.831993E-1,-4.682378E-1,-6.448973E-2,1.0288839E0,5.2054603E-2,2.1777534E-1,-1.3859223E-1,-9.898974E-1,-9.115853E-2,3.3104885E-2,-1.5580453E-2,1.5290071E-2,-1.2683398E0,-1.9902132E-1,5.2587855E-1,-6.501418E-2,-1.5580453E-2,2.8154233E-2,7.3264584E-2,-5.9304226E-2,1.7652718E-2,5.3609353E-2,-1.2552175E-2,6.7200013E-3,-5.664329E-2,3.6516394E-2,-3.2459985E-2,2.2305539E-2,-5.5531394E-2,4.771331E-3,-6.018136E-2,-3.6845297E-2,-1.859995E-3,4.0503647E-3,-3.5660647E-2,1.7652718E-2,5.6738045E-2,2.8154233E-2,-2.0052182E-2,2.2025253E-3,3.9896466E-2,-3.4459103E-2,-1.420224E-3,-1.8774588E-2,-8.294781E-2,-8.1345074E-2,-1.4204809E-2,2.7633915E-2,-3.1789307E-2,5.6809224E-2,6.4818994E-3],"categories":[],"categories_nodes":[],"categories_segments":[],"categories_sizes":[],"default_left":[0,0,0,0,0,0,0,0,0,0,0,0,0,0,0,0,0,0,0,0,0,0,0,0,0,0,0,0,0,0,0,0,0,0,0,0,0,0,0,0,0,0,0,0,0,0,0,0,0,0,0,0,0,0,0,0,0,0,0,0,0,0,0,0,0,0,0,0,0,0,0,0,0,0,0,0,0,0,0,0,0,0,0,0,0,0,0,0,0,0,0],"id":0,"left_children":[1,3,5,7,9,11,13,15,17,19,21,23,25,27,29,31,33,35,37,39,41,43,45,-1,47,49,51,53,-1,-1,55,-1,57,59,61,63,-1,65,67,69,71,73,-1,75,77,79,81,83,-1,-1,-1,-1,85,87,89,-1,-1,-1,-1,-1,-1,-1,-1,-1,-1,-1,-1,-1,-1,-1,-1,-1,-1,-1,-1,-1,-1,-1,-1,-1,-1,-1,-1,-1,-1,-1,-1,-1,-1,-1,-1],"loss_changes":[1.7435886E1,7.131333E0,8.706398E0,3.8622541E0,7.316234E0,2.9677029E0,3.7305665E0,6.9036694E0,5.1600018E0,5.87038E0,8.37398E0,3.6683197E0,3.927336E0,2.4739685E0,3.1038904E-1,3.9300385E0,5.7497206E0,2.0970562E0,3.6101775E0,4.4252977E0,1.0179214E0,3.1066504E0,5.5121517E0,0E0,7.403183E-1,1.1707051E0,3.5871754E0,2.4531264E0,0E0,0E0,2.7587128E-1,0E0,1.5777779E-1,4.031912E0,3.715176E0,1.8478398E0,0E0,4.1525264E0,3.3004904E0,3.6704843E0,8.429934E0,8.608358E-1,0E0,5.419321E-1,1.4927493E0,9.88041E0,4.698121E0,3.26021E0,0E0,0E0,0E0,0E0,1.5564623E0,3.2080827E0,2.377394E0,0E0,0E0,0E0,0E0,0E0,0E0,0E0,0E0,0E0,0E0,0E0,0E0,0E0,0E0,0E0,0E0,0E0,0E0,0E0,0E0,0E0,0E0,0E0,0E0,0E0,0E0,0E0,0E0,0E0,0E0,0E0,0E0,0E0,0E0,0E0,0E0],"parents":[2147483647,0,0,1,1,2,2,3,3,4,4,5,5,6,6,7,7,8,8,9,9,10,10,11,11,12,12,13,13,14,14,15,15,16,16,17,17,18,18,19,19,20,20,21,21,22,22,24,24,25,25,26,26,27,27,30,30,32,32,33,33,34,34,35,35,37,37,38,38,39,39,40,40,41,41,43,43,44,44,45,45,46,46,47,47,52,52,53,53,54,54],"right_children":[2,4,6,8,10,12,14,16,18,20,22,24,26,28,30,32,34,36,38,40,42,44,46,-1,48,50,52,54,-1,-1,56,-1,58,60,62,64,-1,66,68,70,72,74,-1,76,78,80,82,84,-1,-1,-1,-1,86,88,90,-1,-1,-1,-1,-1,-1,-1,-1,-1,-1,-1,-1,-1,-1,-1,-1,-1,-1,-1,-1,-1,-1,-1,-1,-1,-1,-1,-1,-1,-1,-1,-1,-1,-1,-1,-1],"split_conditions":[1.8192645E-2,9.111597E-3,1.8704474E-2,1.7505963E-3,1.4171995E-2,9.123722E-1,2.7774503E-2,6.4078636E1,6.5238273E-1,9.444468E-1,1.464919E-2,9.331165E-3,9.414086E-1,1.1925682E-1,2.4183858E-3,-1.1891038E-2,7.932434E-3,2.7293712E-2,9.3548226E-1,5.6368954E1,1.1982948E-2,7.739115E-1,9.868859E-3,4.0503647E-3,1.5807763E-2,6.9207695E1,4.411199E1,-1.8814887E-3,-3.8794268E-2,-1.4204809E-2,8.1589854E-1,-5.320017E-3,4.3093765E1,7.279285E1,7.372883E1,2.6025267E-3,1.5290071E-2,1.6125953E-2,9.70171E-3,1.4121076E-2,6.313426E1,5.6793636E1,-6.448973E-2,3.451145E1,1.4463704E-2,5.201732E1,-1.3058229E-2,6.9894394E1,-9.115853E-2,3.3104885E-2,-1.5580453E-2,1.5290071E-2,1.51436115E-2,2.014229E-2,2.8323207E-2,-6.501418E-2,-1.5580453E-2,2.8154233E-2,7.3264584E-2,-5.9304226E-2,1.7652718E-2,5.3609353E-2,-1.2552175E-2,6.7200013E-3,-5.664329E-2,3.6516394E-2,-3.2459985E-2,2.2305539E-2,-5.5531394E-2,4.771331E-3,-6.018136E-2,-3.6845297E-2,-1.859995E-3,4.0503647E-3,-3.5660647E-2,1.7652718E-2,5.6738045E-2,2.8154233E-2,-2.0052182E-2,2.2025253E-3,3.9896466E-2,-3.4459103E-2,-1.420224E-3,-1.8774588E-2,-8.294781E-2,-8.1345074E-2,-1.4204809E-2,2.7633915E-2,-3.1789307E-2,5.6809224E-2,6.4818994E-3],"split_indices":[6,4,4,6,4,5,4,1,5,5,4,4,5,0,0,6,4,0,5,1,4,5,0,0,4,1,1,0,0,0,5,0,1,1,1,6,0,6,6,4,1,1,0,1,4,1,6,1,0,0,0,0,4,4,0,0,0,0,0,0,0,0,0,0,0,0,0,0,0,0,0,0,0,0,0,0,0,0,0,0,0,0,0,0,0,0,0,0,0,0,0],"split_type":[0,0,0,0,0,0,0,0,0,0,0,0,0,0,0,0,0,0,0,0,0,0,0,0,0,0,0,0,0,0,0,0,0,0,0,0,0,0,0,0,0,0,0,0,0,0,0,0,0,0,0,0,0,0,0,0,0,0,0,0,0,0,0,0,0,0,0,0,0,0,0,0,0,0,0,0,0,0,0,0,0,0,0,0,0,0,0,0,0,0,0],"sum_hessian":[4.5163004E2,4.0293945E2,4.8690586E1,5.341059E1,3.4952884E2,2.5090557E1,2.3600029E1,2.6332664E1,2.7077929E1,1.5874124E2,1.907876E2,1.5402124E1,9.688433E0,1.9128445E1,4.4715843E0,1.2917911E1,1.3414753E1,6.7073765E0,2.0370552E1,1.500465E2,8.694748E0,1.6644232E1,1.7414337E2,1.7389495E0,1.3663175E1,3.477899E0,6.210534E0,1.7141073E1,1.9873708E0,1.7389495E0,2.732635E0,1.9873708E0,1.093054E1,5.46527E0,7.9494834E0,5.2168484E0,1.4905281E0,1.6644232E1,3.7263203E0,7.527167E1,7.4774826E1,4.968427E0,3.7263203E0,1.21726465E1,4.4715843E0,9.738117E1,7.67622E1,8.446326E0,5.2168484E0,2.2357922E0,1.2421068E0,1.4905281E0,4.720006E0,7.701062E0,9.440012E0,1.4905281E0,1.2421068E0,1.9873708E0,8.943169E0,3.2294776E0,2.2357922E0,5.2168484E0,2.732635E0,1.2421068E0,3.9747417E0,1.4905281E1,1.7389495E0,1.7389495E0,1.9873708E0,7.4029564E1,1.2421068E0,2.55874E1,4.9187428E1,1.7389495E0,3.2294776E0,2.2357922E0,9.936854E0,1.9873708E0,2.4842136E0,7.576852E1,2.1612658E1,1.1924225E1,6.4837975E1,5.2168484E0,3.2294776E0,2.9810562E0,1.7389495E0,2.732635E0,4.968427E0,2.9810562E0,6.4589553E0],"tree_param":{"num_deleted":"0","num_feature":"7","num_nodes":"91","size_leaf_vector":"1"}},{"base_weights":[1.9335935E-2,7.2332166E-2,-4.1862524E-1,3.281756E-1,2.660579E-2,-8.3203673E-1,-5.0412547E-2,2.1340604E-1,6.261409E-2,-3.3575216E-1,5.878999E-2,-7.064468E-2,-4.374645E-1,1.4030987E-1,-9.0586495E-1,3.0435306E-1,-9.4789773E-1,-6.260776E-2,-1.1455195E0,3.834016E-1,3.0080251E-2,1.8258905E-1,-8.705745E-1,7.494865E-1,-4.053248E-2,-1.325605E-2,-5.842867E-2,-4.485819E-2,3.5793778E-1,-6.454211E-2,-1.4472479E-2,-4.0126142E-1,4.4797665E-1,-7.7583276E-2,-5.735502E-1,1.00092486E-1,1.0496422E0,1.6321685E-2,4.7461875E-2,-1.9037819E-1,4.139882E-2,3.0107288E-2,-1.1856375E0,-3.32064E-3,5.4696005E-2,2.4592242E-1,-3.704355E-1,4.654933E-3,3.0951992E-2,1.720503E-4,-6.1612736E-2,5.675271E-2,-2.2050636E-2,-5.075289E-3,-4.549561E-2,-2.0909665E-2,2.0157706E-2,2.2583034E-2,6.2876716E-2,-2.3251807E-3,1.1203984E-2,-2.9414907E-2,3.0069446E-2,-7.710778E-2,-3.4026373E-2,4.395666E-2,-6.223165E-3,1.3408718E-2,-3.468288E-2],"categories":[],"categories_nodes":[],"categories_segments":[],"categories_sizes":[],"default_left":[0,0,0,0,0,0,0,0,0,0,0,0,0,0,0,0,0,0,0,0,0,0,0,0,0,0,0,0,0,0,0,0,0,0,0,0,0,0,0,0,0,0,0,0,0,0,0,0,0,0,0,0,0,0,0,0,0,0,0,0,0,0,0,0,0,0,0,0,0],"id":1,"left_children":[1,3,5,7,9,11,13,15,-1,17,19,-1,21,23,25,27,29,31,33,35,37,39,41,43,45,-1,-1,-1,47,-1,-1,49,51,-1,53,55,57,59,-1,61,-1,-1,63,-1,-1,65,67,-1,-1,-1,-1,-1,-1,-1,-1,-1,-1,-1,-1,-1,-1,-1,-1,-1,-1,-1,-1,-1,-1],"loss_changes":[1.0378583E1,4.6541195E0,7.30655E0,6.133101E0,3.9758887E0,4.579237E0,4.466587E0,6.0853424E0,0E0,6.0818415E0,2.8999524E0,0E0,4.1744294E0,2.5217068E0,5.289631E-1,3.6469135E0,5.8136773E-1,3.9598622E0,7.267647E-1,4.6703777E0,3.6279938E0,1.8367447E0,4.8790717E0,1.5418317E0,1.8286712E0,0E0,0E0,0E0,3.4113293E0,0E0,0E0,4.601947E0,6.114051E0,0E0,6.183623E-1,3.130499E0,3.573227E-1,3.72875E0,0E0,2.0028062E0,0E0,0E0,3.4281158E-1,0E0,0E0,2.558484E0,2.0322232E0,0E0,0E0,0E0,0E0,0E0,0E0,0E0,0E0,0E0,0E0,0E0,0E0,0E0,0E0,0E0,0E0,0E0,0E0,0E0,0E0,0E0,0E0],"parents":[2147483647,0,0,1,1,2,2,3,3,4,4,5,5,6,6,7,7,9,9,10,10,12,12,13,13,14,14,15,15,16,16,17,17,18,18,19,19,20,20,21,21,22,22,23,23,24,24,28,28,31,31,32,32,34,34,35,35,36,36,37,37,39,39,42,42,45,45,46,46],"right_children":[2,4,6,8,10,12,14,16,-1,18,20,-1,22,24,26,28,30,32,34,36,38,40,42,44,46,-1,-1,-1,48,-1,-1,50,52,-1,54,56,58,60,-1,62,-1,-1,64,-1,-1,66,68,-1,-1,-1,-1,-1,-1,-1,-1,-1,-1,-1,-1,-1,-1,-1,-1,-1,-1,-1,-1,-1,-1],"split_conditions":[1.8192645E-2,1.2385362E-1,1.7634792E-2,1.1320746E-1,1.8584035E-1,9.9811083E-1,2.9317938E-2,1.0513278E-1,6.261409E-2,-1.0641468E-3,8.212765E-3,-7.064468E-2,6.3222893E1,3.701085E1,8.359796E-1,1.632507E1,9.8347807E-1,1.0011638E0,7.33821E-1,7.692182E-3,9.929117E-1,2.4860863E-2,1.0269257E0,8.0645794E-1,9.166697E-1,-1.325605E-2,-5.842867E-2,-4.485819E-2,5.0228532E-2,-6.454211E-2,-1.4472479E-2,9.102122E-1,1.3489114E0,-7.7583276E-2,5.215772E1,5.6923115E-1,7.535893E-1,1.85869E-2,4.7461875E-2,6.098546E1,4.139882E-2,3.0107288E-2,1.4069493E0,-3.32064E-3,5.4696005E-2,2.2427887E-2,2.0041917E-2,4.654933E-3,3.0951992E-2,1.720503E-4,-6.1612736E-2,5.675271E-2,-2.2050636E-2,-5.075289E-3,-4.549561E-2,-2.0909665E-2,2.0157706E-2,2.2583034E-2,6.2876716E-2,-2.3251807E-3,1.1203984E-2,-2.9414907E-2,3.0069446E-2,-7.710778E-2,-3.4026373E-2,4.395666E-2,-6.223165E-3,1.3408718E-2,-3.468288E-2],"split_indices":[6,5,4,5,5,3,4,5,0,6,4,0,1,1,3,1,3,3,3,4,5,6,3,5,5,0,0,0,5,0,0,3,3,0,1,5,3,4,0,1,0,0,3,0,0,6,4,0,0,0,0,0,0,0,0,0,0,0,0,0,0,0,0,0,0,0,0,0,0],"split_type":[0,0,0,0,0,0,0,0,0,0,0,0,0,0,0,0,0,0,0,0,0,0,0,0,0,0,0,0,0,0,0,0,0,0,0,0,0,0,0,0,0,0,0,0,0,0,0,0,0,0,0,0,0,0,0,0,0,0,0,0,0,0,0,0,0,0,0,0,0],"sum_hessian":[4.4484976E2,3.9757532E2,4.727443E1,5.934688E1,3.3822845E2,2.167694E1,2.559749E1,5.3885494E1,5.4613886E0,2.6821074E1,3.1140738E2,7.7245984E0,1.3952342E1,2.1614529E1,3.98296E0,5.065629E1,3.2292044E0,2.0861538E1,5.9595356E0,2.4300068E1,2.871073E2,5.9757285E0,7.976613E0,4.227972E0,1.7386557E1,1.7424124E0,2.2405477E0,1.4905761E0,4.9165714E1,1.4917921E0,1.7374123E0,1.2671239E1,8.190298E0,2.4833214E0,3.4762142E0,1.785691E1,6.4431567E0,2.8387582E2,3.2314878E0,4.2339563E0,1.7417722E0,1.245147E0,6.7314663E0,1.494637E0,2.733335E0,9.442336E0,7.944222E0,2.5081644E1,2.4084068E1,9.19099E0,3.480249E0,4.4636574E0,3.7266407E0,1.9880273E0,1.488187E0,6.448687E0,1.1408223E1,2.4805806E0,3.9625762E0,2.1856015E2,6.5315674E1,2.9888332E0,1.2451231E0,2.7425816E0,3.9888844E0,2.9778492E0,6.4644866E0,2.7268753E0,5.2173467E0],"tree_param":{"num_deleted":"0","num_feature":"7","num_nodes":"69","size_leaf_vector":"1"}},{"base_weights":[-3.002936E-2,2.3103176E-2,-4.8080093E-1,1.7290615E-1,-7.098646E-2,-1.9173348E-1,-8.8001275E-1,7.953437E-1,1.3541292E-1,4.7964873E-3,-2.953356E-1,-6.91155E-1,2.2937894E-1,-1.0391011E0,2.402283E-2,7.1261406E-2,3.673494E-2,-4.5707044E-1,1.9885372E-1,-4.190439E-2,5.371583E-1,-3.6781284E-1,8.704578E-1,-1.0402882E0,1.7572388E-1,6.2455732E-2,1.917425E-3,-1.3052363E0,-4.6299186E-1,5.124981E-1,-3.846779E-2,4.6015644E-1,-7.5610435E-1,9.452822E-2,8.355271E-1,-6.026014E-1,2.3685927E-3,-6.2018253E-2,9.06473E-1,-1.0011472E0,-1.8943536E-1,5.4934274E-2,1.4608501E-2,8.3051445E-3,-1.236934E0,5.072211E-2,-4.147207E-1,5.4998845E-2,-2.0947595E-1,-8.4510766E-2,-3.075941E-1,2.9707748E-2,-7.826237E-1,-1.6665185E-2,5.3455066E-2,5.1258713E-2,-5.9268465E-3,-7.0761907E-4,-5.566117E-2,1.038451E-2,-1.1443769E-2,6.520699E-2,1.7715525E-2,5.0498493E-2,-4.3305203E-2,1.8310643E-3,-2.9204426E-2,-5.504318E-2,3.0424489E-2,7.2628364E-2,1.48275765E-2,-2.7180502E-2,-6.870141E-2,1.1519772E-2,-2.474381E-2,-7.83319E-2,-3.667609E-2,6.330143E-3,-3.8538948E-2,-6.1846655E-2,7.696482E-3,-4.2100143E-2,3.0066043E-2,6.0221846E-3,-5.2212115E-2],"categories":[],"categories_nodes":[],"categories_segments":[],"categories_sizes":[],"default_left":[0,0,0,0,0,0,0,0,0,0,0,0,0,0,0,0,0,0,0,0,0,0,0,0,0,0,0,0,0,0,0,0,0,0,0,0,0,0,0,0,0,0,0,0,0,0,0,0,0,0,0,0,0,0,0,0,0,0,0,0,0,0,0,0,0,0,0,0,0,0,0,0,0,0,0,0,0,0,0,0,0,0,0,0,0],"id":2,"left_children":[1,3,5,7,9,11,13,15,17,19,21,23,25,27,-1,-1,29,31,33,35,37,39,41,43,45,-1,47,49,51,53,-1,55,57,59,61,63,65,67,69,71,73,-1,-1,-1,75,-1,77,-1,79,-1,81,-1,83,-1,-1,-1,-1,-1,-1,-1,-1,-1,-1,-1,-1,-1,-1,-1,-1,-1,-1,-1,-1,-1,-1,-1,-1,-1,-1,-1,-1,-1,-1,-1,-1],"loss_changes":[1.079859E1,5.704748E0,5.3170404E0,3.535149E0,4.230984E0,6.226244E0,4.76007E0,4.087251E0,5.6701355E0,4.6701884E0,5.6289234E0,4.2527633E0,3.8023906E0,2.1465397E0,0E0,0E0,2.2951534E0,4.368781E0,8.872843E0,4.290766E0,3.4084535E0,6.5724125E0,2.0356512E-1,2.5139666E0,2.756369E0,0E0,3.5760791E0,3.9824162E0,2.904266E0,2.106245E0,0E0,1.5032766E0,3.0137668E0,4.326683E0,3.7880611E0,6.249593E0,3.258381E0,5.3456373E0,2.7122154E0,1.4573431E0,6.260965E0,0E0,0E0,0E0,2.5924206E-1,0E0,7.6788485E-1,0E0,5.0169563E0,0E0,2.6855667E0,0E0,1.5373158E0,0E0,0E0,0E0,0E0,0E0,0E0,0E0,0E0,0E0,0E0,0E0,0E0,0E0,0E0,0E0,0E0,0E0,0E0,0E0,0E0,0E0,0E0,0E0,0E0,0E0,0E0,0E0,0E0,0E0,0E0,0E0,0E0],"parents":[2147483647,0,0,1,1,2,2,3,3,4,4,5,5,6,6,7,7,8,8,9,9,10,10,11,11,12,12,13,13,16,16,17,17,18,18,19,19,20,20,21,21,22,22,23,23,24,24,26,26,27,27,28,28,29,29,31,31,32,32,33,33,34,34,35,35,36,36,37,37,38,38,39,39,40,40,44,44,46,46,48,48,50,50,52,52],"right_children":[2,4,6,8,10,12,14,16,18,20,22,24,26,28,-1,-1,30,32,34,36,38,40,42,44,46,-1,48,50,52,54,-1,56,58,60,62,64,66,68,70,72,74,-1,-1,-1,76,-1,78,-1,80,-1,82,-1,84,-1,-1,-1,-1,-1,-1,-1,-1,-1,-1,-1,-1,-1,-1,-1,-1,-1,-1,-1,-1,-1,-1,-1,-1,-1,-1,-1,-1,-1,-1,-1,-1],"split_conditions":[1.8192645E-2,-3.5446524E-3,3.159223E-2,9.111597E-3,7.92103E-3,2.278609E-2,8.0867195E1,-1.1759241E-2,1.0934419E-2,6.442659E-3,8.91226E1,1.8704474E-2,6.8000287E-1,2.1916036E-2,2.402283E-2,7.1261406E-2,6.211178E-1,3.3374214E1,5.242404E1,2.0656588E-3,6.5238273E-1,6.211178E-1,8.7931126E-1,1.1293414E-2,-3.765554E-2,6.2455732E-2,3.0812906E1,9.123722E-1,2.2512859E-2,4.3093765E1,-3.846779E-2,-3.407322E-2,-7.199257E-3,4.3520683E1,3.7233934E-1,3.722632E1,8.21872E1,1.2127911E-2,7.979747E-1,5.8945583E1,8.367311E-1,5.4934274E-2,1.4608501E-2,8.3051445E-3,8.612258E-1,5.072211E-2,2.1022571E-2,5.4998845E-2,-4.261986E-2,-8.4510766E-2,6.606814E-2,2.9707748E-2,2.2427887E-2,-1.6665185E-2,5.3455066E-2,5.1258713E-2,-5.9268465E-3,-7.0761907E-4,-5.566117E-2,1.038451E-2,-1.1443769E-2,6.520699E-2,1.7715525E-2,5.0498493E-2,-4.3305203E-2,1.8310643E-3,-2.9204426E-2,-5.504318E-2,3.0424489E-2,7.2628364E-2,1.48275765E-2,-2.7180502E-2,-6.870141E-2,1.1519772E-2,-2.474381E-2,-7.83319E-2,-3.667609E-2,6.330143E-3,-3.8538948E-2,-6.1846655E-2,7.696482E-3,-4.2100143E-2,3.0066043E-2,6.0221846E-3,-5.2212115E-2],"split_indices":[6,0,0,4,6,6,1,0,4,6,1,4,5,4,0,0,5,1,1,0,5,5,5,4,0,0,1,5,4,1,0,0,6,1,5,1,1,4,5,1,5,0,0,0,5,0,6,0,0,0,0,0,6,0,0,0,0,0,0,0,0,0,0,0,0,0,0,0,0,0,0,0,0,0,0,0,0,0,0,0,0,0,0,0,0],"split_type":[0,0,0,0,0,0,0,0,0,0,0,0,0,0,0,0,0,0,0,0,0,0,0,0,0,0,0,0,0,0,0,0,0,0,0,0,0,0,0,0,0,0,0,0,0,0,0,0,0,0,0,0,0,0,0,0,0,0,0,0,0,0,0,0,0,0,0,0,0,0,0,0,0,0,0,0,0,0,0,0,0,0,0,0,0],"sum_hessian":[4.494048E2,4.0286746E2,4.6537323E1,1.5509628E2,2.477712E2,2.7850897E1,1.8686426E1,7.663244E0,1.4743303E2,1.8594083E2,6.1830368E1,1.2447467E1,1.540343E1,1.694156E1,1.7448651E0,3.706741E0,3.9565027E0,1.3659567E1,1.3377347E2,1.7179185E2,1.41489725E1,5.8855804E1,2.9745631E0,8.731029E0,3.7164378E0,1.9900899E0,1.341334E1,1.0722613E1,6.2189474E0,2.7170749E0,1.2394278E0,3.2259126E0,1.0433655E1,1.1592623E2,1.7847237E1,1.1649188E1,1.6014267E2,5.712721E0,8.436253E0,1.19202175E1,4.693559E1,1.4875792E0,1.4869839E0,1.2454857E0,7.4855433E0,1.2387341E0,2.4777036E0,1.48681E0,1.192653E1,7.236081E0,3.4865322E0,1.2443906E0,4.9745564E0,1.2376113E0,1.4794636E0,1.2418635E0,1.9840491E0,3.7279925E0,6.7056623E0,8.61421E1,2.9784136E1,8.175641E0,9.671595E0,1.2382911E0,1.0410897E1,1.5219131E2,7.951352E0,1.989097E0,3.7236238E0,3.7220995E0,4.714153E0,6.456162E0,5.464056E0,1.9869923E1,2.7065666E1,3.2469516E0,4.2385917E0,1.2387838E0,1.2389197E0,2.4881248E0,9.438405E0,2.2419596E0,1.2445726E0,1.2386268E0,3.7359297E0],"tree_param":{"num_deleted":"0","num_feature":"7","num_nodes":"85","size_leaf_vector":"1"}},{"base_weights":[-2.9684791E-2,6.0201727E-2,-2.9585978E-1,4.551663E-1,-2.7082084E-2,1.3836999E-1,-3.9603585E-1,7.718349E-1,-6.375579E-2,-1.3736285E-1,1.7192312E-1,2.5429776E-1,-4.3193046E-2,-5.293224E-1,-5.85822E-2,8.389084E-1,-2.576035E-2,-3.0266285E-1,7.0324546E-1,-5.49624E-1,-5.6074068E-2,-2.506703E-3,4.7073352E-1,-1.6444786E-1,6.500008E-1,-5.653162E-1,1.7088402E-2,-2.5294858E-1,3.8214773E-1,9.059498E-1,1.327146E-2,-4.9177533E-1,4.3600466E-2,-5.307784E-3,4.979593E-2,-4.0552597E-2,-7.390634E-1,-5.462071E-1,2.131628E-2,2.1352728E-1,-5.706984E-1,-1.9539648E-1,6.2873083E-1,5.087737E-2,-4.271717E-1,8.9457595E-1,-1.11777715E-1,-3.6165202E-1,-8.513484E-1,-3.720357E-1,3.463428E-1,6.295375E-2,-1.1443443E-1,2.679042E-2,5.6654423E-2,1.4667234E-2,-1.5159304E-2,-3.2796532E-2,3.604491E-2,-3.4416165E-2,3.801402E-2,-6.342234E-2,-2.5470972E-2,-3.0172328E-3,-4.7963988E-2,2.704652E-3,-4.8267823E-2,-7.7034193E-3,2.1940172E-2,-5.6712892E-2,-4.871551E-3,2.8512618E-2,-2.8052239E-2,3.6567647E-2,2.1579247E-3,-4.8378315E-3,-4.82894E-2,5.30671E-2,1.2416287E-2,2.8009508E-2,-3.6588557E-2,-2.7732162E-2,9.878519E-3,-4.7943912E-2,1.4098691E-2,-3.8795635E-2,4.2927843E-3,5.271536E-2,-2.1478536E-2,1.95819E-2,-3.295667E-2],"categories":[],"categories_nodes":[],"categories_segments":[],"categories_sizes":[],"default_left":[0,0,0,0,0,0,0,0,0,0,0,0,0,0,0,0,0,0,0,0,0,0,0,0,0,0,0,0,0,0,0,0,0,0,0,0,0,0,0,0,0,0,0,0,0,0,0,0,0,0,0,0,0,0,0,0,0,0,0,0,0,0,0,0,0,0,0,0,0,0,0,0,0,0,0,0,0,0,0,0,0,0,0,0,0,0,0,0,0,0,0],"id":3,"left_children":[1,3,5,7,9,11,13,15,17,19,21,23,-1,25,27,29,-1,31,33,35,37,39,41,43,45,47,-1,49,51,53,55,57,-1,-1,-1,59,61,63,65,67,69,71,73,-1,75,77,79,81,83,85,87,-1,89,-1,-1,-1,-1,-1,-1,-1,-1,-1,-1,-1,-1,-1,-1,-1,-1,-1,-1,-1,-1,-1,-1,-1,-1,-1,-1,-1,-1,-1,-1,-1,-1,-1,-1,-1,-1,-1,-1],"loss_changes":[1.0678911E1,1.1524472E1,4.9553585E0,9.990385E0,6.046606E0,2.7594168E0,4.0979214E0,3.6820621E0,4.5832467E0,5.9055386E0,5.1247253E0,3.4814234E0,0E0,2.2525978E0,2.4195542E0,1.989603E0,0E0,4.6240387E0,1.5188782E0,2.7726936E0,5.6664214E0,7.8627334E0,3.936717E0,3.7551663E0,2.0884523E0,3.3885136E0,0E0,1.5147789E0,3.9313798E0,2.203558E0,4.1959247E-1,3.838213E0,0E0,0E0,0E0,5.1608667E0,1.9216261E0,4.0296264E0,4.2470894E0,3.9115322E0,4.5955157E0,2.478454E0,1.7428045E0,0E0,1.5887961E0,6.1909866E-1,1.8608919E0,4.297213E0,3.3964062E0,3.151721E0,2.5057545E0,0E0,2.0414827E0,0E0,0E0,0E0,0E0,0E0,0E0,0E0,0E0,0E0,0E0,0E0,0E0,0E0,0E0,0E0,0E0,0E0,0E0,0E0,0E0,0E0,0E0,0E0,0E0,0E0,0E0,0E0,0E0,0E0,0E0,0E0,0E0,0E0,0E0,0E0,0E0,0E0,0E0],"parents":[2147483647,0,0,1,1,2,2,3,3,4,4,5,5,6,6,7,7,8,8,9,9,10,10,11,11,13,13,14,14,15,15,17,17,18,18,19,19,20,20,21,21,22,22,23,23,24,24,25,25,27,27,28,28,29,29,30,30,31,31,35,35,36,36,37,37,38,38,39,39,40,40,41,41,42,42,44,44,45,45,46,46,47,47,48,48,49,49,50,50,52,52],"right_children":[2,4,6,8,10,12,14,16,18,20,22,24,-1,26,28,30,-1,32,34,36,38,40,42,44,46,48,-1,50,52,54,56,58,-1,-1,-1,60,62,64,66,68,70,72,74,-1,76,78,80,82,84,86,88,-1,90,-1,-1,-1,-1,-1,-1,-1,-1,-1,-1,-1,-1,-1,-1,-1,-1,-1,-1,-1,-1,-1,-1,-1,-1,-1,-1,-1,-1,-1,-1,-1,-1,-1,-1,-1,-1,-1,-1],"split_conditions":[9.70171E-3,5.7782006E-2,4.1268124E1,1.7505963E-3,6.1709667E1,2.9317938E-2,1.1529673E0,1.9367307E0,1.2787966E-2,7.229418E-2,9.601445E-1,1.7634792E-2,-4.3193046E-2,8.419948E1,1.7634792E-2,6.4078636E1,-2.576035E-2,6.6318436E1,6.5035677E-1,4.324024E1,1.275406E-2,8.4951454E-1,-1.2307616E-2,1.170346E-2,2.2360314E-2,6.098546E1,1.7088402E-2,2.5615769E-2,1.174449E-1,-5.2267956E-3,8.687771E-3,8.818929E-3,4.3600466E-2,-5.307784E-3,4.979593E-2,-5.6555034E-3,6.7808926E-1,-4.6604164E-3,6.0784203E1,1.16353175E-2,7.106602E1,6.3905933E1,1.4282957E-1,5.087737E-2,1.0948373E0,1.2242177E0,3.0812906E1,2.1644117E-2,2.8964E-2,7.999383E-2,1.3199647E-2,6.295375E-2,2.7053071E-2,2.679042E-2,5.6654423E-2,1.4667234E-2,-1.5159304E-2,-3.2796532E-2,3.604491E-2,-3.4416165E-2,3.801402E-2,-6.342234E-2,-2.5470972E-2,-3.0172328E-3,-4.7963988E-2,2.704652E-3,-4.8267823E-2,-7.7034193E-3,2.1940172E-2,-5.6712892E-2,-4.871551E-3,2.8512618E-2,-2.8052239E-2,3.6567647E-2,2.1579247E-3,-4.8378315E-3,-4.82894E-2,5.30671E-2,1.2416287E-2,2.8009508E-2,-3.6588557E-2,-2.7732162E-2,9.878519E-3,-4.7943912E-2,1.4098691E-2,-3.8795635E-2,4.2927843E-3,5.271536E-2,-2.1478536E-2,1.95819E-2,-3.295667E-2],"split_indices":[6,2,1,6,1,4,3,3,4,2,3,4,0,1,4,1,0,1,3,1,4,3,6,4,4,1,0,6,2,6,4,6,0,0,0,6,3,6,1,4,1,1,2,0,3,3,1,4,6,2,4,0,6,0,0,0,0,0,0,0,0,0,0,0,0,0,0,0,0,0,0,0,0,0,0,0,0,0,0,0,0,0,0,0,0,0,0,0,0,0,0],"split_type":[0,0,0,0,0,0,0,0,0,0,0,0,0,0,0,0,0,0,0,0,0,0,0,0,0,0,0,0,0,0,0,0,0,0,0,0,0,0,0,0,0,0,0,0,0,0,0,0,0,0,0,0,0,0,0,0,0,0,0,0,0,0,0,0,0,0,0,0,0,0,0,0,0,0,0,0,0,0,0,0,0,0,0,0,0,0,0,0,0,0,0],"sum_hessian":[4.4459488E2,3.329369E2,1.11658E2,5.9496555E1,2.7344034E2,2.0859177E1,9.079882E1,3.664613E1,2.2850428E1,1.761402E2,9.730014E1,1.936545E1,1.493728E0,6.468223E1,2.6116587E1,3.5161877E1,1.4842516E0,1.7884974E1,4.965453E0,2.8061775E1,1.4807843E2,6.206277E1,3.5237373E1,9.692719E0,9.67273E0,6.2452686E1,2.2295458E0,1.8419477E1,7.6971087E0,3.2431202E1,2.730674E0,1.5905647E1,1.9793264E0,1.4878963E0,3.4775567E0,7.9397454E0,2.012203E1,1.9366646E1,1.2871178E2,4.541832E1,1.664445E1,6.71014E0,2.8527231E1,1.2401614E0,8.452558E0,7.1899977E0,2.4827325E0,3.780131E1,2.4651375E1,1.5682387E1,2.7370896E0,2.2276907E0,5.4694176E0,1.3610581E1,1.882062E1,1.4873587E0,1.2433152E0,1.441363E1,1.4920182E0,4.467005E0,3.4727404E0,4.7193303E0,1.5402699E1,9.425875E0,9.940772E0,1.254883E2,3.2234802E0,1.7377909E1,2.8040413E1,6.95997E0,9.684479E0,1.9879369E0,4.7222037E0,2.4061481E1,4.46575E0,5.969932E0,2.4826255E0,5.2046266E0,1.9853711E0,1.237716E0,1.2450167E0,2.8108929E1,9.692381E0,2.265572E1,1.9956561E0,7.9636345E0,7.718753E0,1.2436005E0,1.4934893E0,2.9809024E0,2.4885154E0],"tree_param":{"num_deleted":"0","num_feature":"7","num_nodes":"91","size_leaf_vector":"1"}}]},"name":"gbtree"},"learner_model_param":{"base_score":"[5.3973216E-1]","boost_from_average":"1","num_class":"0","num_feature":"7","num_target":"1"},"objective":{"name":"binary:logistic","reg_loss_param":{"scale_pos_weight":"1"}}},"version":[3,2,0]}