{"learner":{"attributes":{},"feature_names":[],"feature_types":[],"gradient_booster":{"model":{"cats":{"enc":[],"feature_segments":[],"sorted_idx":[]},"gbtree_model_param":{"num_parallel_tree":"1","num_trees":"1"},"iteration_indptr":[0,1],"tree_info":[0],"trees":[{"base_weights":[1.295818E-1,-3.696354E-1,7.205068E-1,1.3260879E-1,-6.4625405E-2,1.1606038E0,-5.5325865E-3,-4.773417E-1,6.191128E-2,7.144254E-2,1.2854196E-2,9.862437E-3,-5.815908E-2],"categories":[],"categories_nodes":[],"categories_segments":[],"categories_sizes":[],"default_left":[0,0,0,0,0,0,0,0,0,0,0,0,0],"id":0,"left_children":[1,3,5,7,-1,9,-1,11,-1,-1,-1,-1,-1],"loss_changes":[4.3925786E0,3.9920528E0,2.5954537E0,4.802421E0,0E0,7.22486E-1,0E0,2.4253817E0,0E0,0E0,0E0,0E0,0E0],"parents":[2147483647,0,0,1,1,2,2,3,3,5,5,7,7],"right_children":[2,4,6,8,-1,10,-1,12,-1,-1,-1,-1,-1],"split_conditions":[6.0746323E1,5.7038788E1,2.6884206E-2,4.0960148E1,-6.4625405E-2,7.051858E1,-5.5325865E-3,3.350763E1,6.191128E-2,7.144254E-2,1.2854196E-2,9.862437E-3,-5.815908E-2],"split_indices":[1,1,0,1,0,1,0,1,0,0,0,0,0],"split_type":[0,0,0,0,0,0,0,0,0,0,0,0,0],"sum_hessian":[1.2987305E1,7.24292E0,5.744385E0,5.244873E0,1.9980469E0,3.496582E0,2.2478027E0,3.746338E0,1.4985352E0,2.2478027E0,1.2487793E0,2.2478027E0,1.4985352E0],"tree_param":{"num_deleted":"0","num_feature":"7","num_nodes":"13","size_leaf_vector":"1"}}]},"name":"gbtree"},"learner_model_param":{"base_score":"[4.84375E-1]","boost_from_average":"1","num_class":"0","num_feature":"7","num_target":"1"},"objective":{"name":"binary:logistic","reg_loss_param":{"scale_pos_weight":"1"}}},"version":[3,2,0]}