{"learner":{"attributes":{},"feature_names":[],"feature_types":[],"gradient_booster":{"model":{"cats":{"enc":[],"feature_segments":[],"sorted_idx":[]},"gbtree_model_param":{"num_parallel_tree":"1","num_trees":"1"},"iteration_indptr":[0,1],"tree_info":[0],"trees":[{"base_weights":[1.8033253E-2,6.952936E-1,-9.469523E-2,-6.6116923E-3,9.168657E-1,3.4105185E-1,-3.0463353E-1,1.2995932E-1,7.2707824E-2,5.560497E-1,-6.4248306E-1,-5.99678E-1,1.0380501E-1,-2.628249E-2,3.4380596E-2,-2.3242218E-2,1.0528235E0,1.0086796E-2,-6.2651776E-2,4.2299244E-1,-7.3309684E-1,2.9037482E-1,-7.2669554E-1,5.711369E-1,-6.414958E-1,2.4657466E-1,7.171631E-2,-3.2469682E-2,6.094643E-2,-1.0483131E0,-3.3872387E-1,5.8269095E-2,6.3044064E-2,-5.9071153E-2,9.376392E-4,-8.097847E-3,4.7821067E-2,1.0086796E-2,-5.6036558E-2,-3.2469682E-2,3.9549958E-2,-2.0452492E-2,-6.833853E-2,1.4690611E-2,-5.5242117E-2,-1.7529152E-2,3.209798E-2],"categories":[],"categories_nodes":[],"categories_segments":[],"categories_sizes":[],"default_left":[0,0,0,0,0,0,0,0,0,0,0,0,0,0,0,0,0,0,0,0,0,0,0,0,0,0,0,0,0,0,0,0,0,0,0,0,0,0,0,0,0,0,0,0,0,0,0],"id":0,"left_children":[1,3,5,-1,7,9,11,13,-1,15,17,19,21,-1,-1,23,25,-1,-1,27,29,31,33,35,37,39,-1,-1,-1,41,43,-1,45,-1,-1,-1,-1,-1,-1,-1,-1,-1,-1,-1,-1,-1,-1],"loss_changes":[6.0194354E0,2.183548E0,6.3001747E0,0E0,3.6153727E0,5.113946E0,5.634392E0,2.0977187E0,0E0,5.4909697E0,2.5718215E0,3.9932032E0,3.3479488E0,0E0,0E0,3.9484975E0,2.7983932E0,0E0,0E0,3.9918072E0,2.6587915E0,3.3570414E0,1.37781E0,1.7080613E0,2.3472311E0,2.7082949E0,0E0,0E0,0E0,2.0868406E0,6.2596054E0,0E0,3.7562199E0,0E0,0E0,0E0,0E0,0E0,0E0,0E0,0E0,0E0,0E0,0E0,0E0,0E0,0E0],"parents":[2147483647,0,0,1,1,2,2,4,4,5,5,6,6,7,7,9,9,10,10,11,11,12,12,15,15,16,16,19,19,20,20,21,21,22,22,23,23,24,24,25,25,29,29,30,30,32,32],"right_children":[2,4,6,-1,8,10,12,14,-1,16,18,20,22,-1,-1,24,26,-1,-1,28,30,32,34,36,38,40,-1,-1,-1,42,44,-1,46,-1,-1,-1,-1,-1,-1,-1,-1,-1,-1,-1,-1,-1,-1],"split_conditions":[-9.411154E-3,-1.753666E-2,8.258334E-3,-6.6116923E-3,6.0391486E-1,2.5489919E-2,7.0334125E-1,8.989537E-3,7.2707824E-2,7.554799E-3,6.673069E1,2.1547571E-1,1.2657735E-2,-2.628249E-2,3.4380596E-2,-1.2377374E-3,-5.6495885E-3,1.0086796E-2,-6.2651776E-2,9.828705E-3,5.795766E-1,3.614974E1,1.2774465E-2,4.3955433E-1,4.0306586E-1,3.8364705E-1,7.171631E-2,-3.2469682E-2,6.094643E-2,-5.329458E-3,6.465671E-1,5.8269095E-2,5.8694614E1,-5.9071153E-2,9.376392E-4,-8.097847E-3,4.7821067E-2,1.0086796E-2,-5.6036558E-2,-3.2469682E-2,3.9549958E-2,-2.0452492E-2,-6.833853E-2,1.4690611E-2,-5.5242117E-2,-1.7529152E-2,3.209798E-2],"split_indices":[6,6,4,0,5,0,5,4,0,4,1,5,4,0,0,6,0,0,0,4,5,1,4,5,5,5,0,0,0,0,5,0,1,0,0,0,0,0,0,0,0,0,0,0,0,0,0],"split_type":[0,0,0,0,0,0,0,0,0,0,0,0,0,0,0,0,0,0,0,0,0,0,0,0,0,0,0,0,0,0,0,0,0,0,0,0,0,0,0,0,0,0,0,0,0,0,0],"sum_hessian":[7.698119E1,1.0247497E1,6.6733696E1,2.2494504E0,7.9980464E0,2.149475E1,4.523895E1,3.7490842E0,4.248962E0,1.7995604E1,3.4991453E0,2.599365E1,1.9245298E1,1.7495726E0,1.9995116E0,8.747863E0,9.247741E0,1.7495726E0,1.7495726E0,2.7493284E0,2.3244322E1,1.624603E1,2.9992673E0,4.498901E0,4.248962E0,3.4991453E0,5.7485957E0,1.2496947E0,1.4996337E0,1.1997069E1,1.1247252E1,2.4993894E0,1.3746642E1,1.4996337E0,1.4996337E0,1.7495726E0,2.7493284E0,1.7495726E0,2.4993894E0,1.2496947E0,2.2494504E0,4.74884E0,7.2482295E0,6.4984126E0,4.74884E0,8.247985E0,5.4986567E0],"tree_param":{"num_deleted":"0","num_feature":"7","num_nodes":"47","size_leaf_vector":"1"}}]},"name":"gbtree"},"learner_model_param":{"base_score":"[4.921875E-1]","boost_from_average":"1","num_class":"0","num_feature":"7","num_target":"1"},"objective":{"name":"binary:logistic","reg_loss_param":{"scale_pos_weight":"1"}}},"version":[3,2,0]}