{"learner":{"attributes":{},"feature_names":[],"feature_types":[],"gradient_booster":{"model":{"cats":{"enc":[],"feature_segments":[],"sorted_idx":[]},"gbtree_model_param":{"num_parallel_tree":"1","num_trees":"1"},"iteration_indptr":[0,1],"tree_info":[0],"trees":[{"base_weights":[1.0139864E-1,1.0991393E0,-2.9568145E-1,6.610111E-2,3.8625115E-1,4.123176E-2,-1.1178092E0,-2.955449E-2,5.9573192E-2,-5.077242E-1,5.703462E-1,-7.562593E-2,1.500935E-2,-8.878273E-1,2.360199E-1,5.5770725E-2,-8.9233145E-2,-5.261259E-2,-7.272571E-3,-2.955449E-2,4.4294838E-2,-5.6681937E-1,3.729127E-2,-3.593732E-2,-7.272571E-3],"categories":[],"categories_nodes":[],"categories_segments":[],"categories_sizes":[],"default_left":[0,0,0,0,0,0,0,0,0,0,0,0,0,0,0,0,0,0,0,0,0,0,0,0,0],"id":0,"left_children":[1,3,5,-1,7,9,11,-1,-1,13,15,-1,-1,17,19,-1,21,-1,-1,-1,-1,23,-1,-1,-1],"loss_changes":[1.2155076E1,8.737192E-1,6.180636E0,0E0,3.4491594E0,5.1327305E0,4.07722E0,0E0,0E0,2.6725988E0,3.3213038E0,0E0,0E0,5.7639456E-1,2.5322137E0,0E0,2.4091175E0,0E0,0E0,0E0,0E0,1.3467252E-1,0E0,0E0,0E0],"parents":[2147483647,0,0,1,1,2,2,4,4,5,5,6,6,9,9,10,10,13,13,14,14,16,16,21,21],"right_children":[2,4,6,-1,8,10,12,-1,-1,14,16,-1,-1,18,20,-1,22,-1,-1,-1,-1,24,-1,-1,-1],"split_conditions":[4.539125E-1,-1.0353492E-2,5.7806187E1,6.610111E-2,4.2257463E-3,4.483295E1,7.95582E1,-2.955449E-2,5.9573192E-2,4.002169E-3,4.2257463E-3,-7.562593E-2,1.500935E-2,7.077125E-1,1.0964139E-2,5.5770725E-2,6.6261506E-1,-5.261259E-2,-7.272571E-3,-2.955449E-2,4.4294838E-2,1.5502818E-2,3.729127E-2,-3.593732E-2,-7.272571E-3],"split_indices":[5,0,1,0,0,1,1,0,0,6,0,0,0,5,4,0,5,0,0,0,0,0,0,0,0],"split_type":[0,0,0,0,0,0,0,0,0,0,0,0,0,0,0,0,0,0,0,0,0,0,0,0,0],"sum_hessian":[2.8860144E1,7.7126245E0,2.114752E1,5.2246814E0,2.4879434E0,1.5674044E1,5.4734755E0,1.2439717E0,1.2439717E0,7.7126245E0,7.961419E0,4.229504E0,1.2439717E0,4.975887E0,2.7367377E0,3.9807096E0,3.9807096E0,3.7319152E0,1.2439717E0,1.2439717E0,1.4927661E0,2.7367377E0,1.2439717E0,1.4927661E0,1.2439717E0],"tree_param":{"num_deleted":"0","num_feature":"7","num_nodes":"25","size_leaf_vector":"1"}}]},"name":"gbtree"},"learner_model_param":{"base_score":"[4.652778E-1]","boost_from_average":"1","num_class":"0","num_feature":"7","num_target":"1"},"objective":{"name":"binary:logistic","reg_loss_param":{"scale_pos_weight":"1"}}},"version":[3,2,0]}